-0.50079644,-0.17190056,-0.039564814,0.57009876,-1.8038112,-0.97849464,0.9281229,0.18521869,-1.7746238,1.2515488,1.1432401,-0.17330037,0.3656383,0.2952012,-0.72487116,-1.7833611,-0.22564213,1.8130946,0.618785,-0.17716078,-1.9696316,-0.23658164,-1.4811484,0.7754968,-0.60360074,-0.99769586,-1.2330215,-0.16918315,-0.90996534,-1.0325009
0.5708443,0.19182177,1.1749424,-1.3449179,-1.816447,1.1636884,-1.7706996,1.177104,1.477006,-1.578065,0.21451925,-1.1816998,0.062655784,1.7751094,-0.18207204,-0.51489663,1.7487749,-1.0550884,-1.370361,-0.32154104,1.1308196,-1.7555826,-0.42287853,1.256309,0.40605685,0.5801179,-0.12178782,1.5736717,0.13215472,-0.7179553
0.31250414,0.41732165,-0.6009896,0.51278967,1.5754265,0.55980974,0.47743008,-0.52726585,-0.93686956,0.3562904,1.5093511,-0.28395176,0.8501894,0.49571654,0.6271786,0.1659632,1.151748,-0.24320677,0.936614,-0.1865358,-0.27804598,1.2843971,1.2881678,-1.6854755,0.5226809,0.1239544,-0.4970051,1.1234857,0.4623841,0.59129804
-2.2669075,0.5633085,-0.4267308,1.2945422,-0.62620026,-0.5602082,1.782374,-2.0187721,-0.2099519,-0.016565919,-0.27502555,-1.4881175,-1.3396814,-1.3533593,-1.1487242,-0.47725904,0.054551154,-0.36102006,-0.32018965,0.7739503,-1.9103316,0.33302626,-1.0888888,-1.8398194,0.6357547,-1.953585,0.2769223,0.07833824,0.5590489,-0.3423747
-0.87463456,0.97513694,1.0407965,-1.3969511,-0.43882465,1.2103492,-1.0421007,0.11352772,-0.7902369,-2.0901098,-0.93067133,-0.35089752,1.810424,0.5517357,-0.075172275,-0.24858484,-0.20987058,0.4560985,-1.12931,-0.7032876,0.39274266,0.027938992,-2.1264462,-0.5792959,-0.5784207,0.59173274,0.5671237,-0.20605382,2.5694208,0.74024564
-0.6168721,0.083947174,-0.5637859,0.14992659,1.2155714,0.7610331,-0.91238755,0.2748345,-0.513849,1.5680182,-1.0665464,-0.13968065,0.5570662,0.16593464,0.38342136,0.4773359,0.67519176,2.2977905,0.49711415,0.26250932,-0.5139404,-0.002183808,-0.819409,0.35473642,0.82633144,1.6987029,0.49962473,1.2772263,-0.4419663,-0.08420475
0.6575789,-1.0263312,-0.114112936,0.18027169,-1.168933,0.57188416,0.7096292,0.2885303,1.1617599,1.1242746,1.036773,0.21799682,-0.7846025,2.1595254,1.6529549,0.33436528,0.312974,0.18635723,0.38894275,-2.3662267,0.3613269,3.4655743,-0.6333712,0.69406503,-0.11194652,1.1453072,1.245031,0.2233513,0.28604758,-0.751175
-1.1151105,-0.562887,0.29094556,0.061069056,-0.610113,0.72346073,1.4953085,1.4330035,-2.2995796,0.508957,0.7954312,-0.46972132,-0.42119047,-0.6408271,0.3208774,-0.29636323,-0.79182917,0.74855006,-0.12133809,0.6794631,-0.8844572,-0.7402412,-0.75221276,-0.122448325,-0.05458043,0.41188404,-0.98094594,-1.3136913,0.7671811,1.3794599
-1.5179987,-1.6775075,0.34748054,0.14498918,1.0269884,-0.68814546,0.9330595,0.75371695,-0.571845,0.4301269,0.09442872,-1.5216709,-0.2447511,0.20486274,1.1118869,0.055486325,0.4561876,-0.08080204,-0.24869771,-0.38645762,0.9898545,-1.7908431,2.2657664,-1.3794553,-0.47993833,0.69237405,-0.6507074,0.36581582,1.6559005,1.2646955
1.2121435,-0.85327387,2.2015946,0.9700258,0.04234236,0.19461393,-0.517492,-1.4169772,-0.7780947,-0.3992457,1.6888493,1.0431095,0.7555941,0.7267037,0.9498937,-0.46298158,1.2692376,-0.75610304,0.0060606888,0.2477984,0.39703855,1.7174994,-1.2123747,1.0487195,-0.70741594,0.7987687,-0.043743327,-0.022617092,-1.810221,1.0764915
-0.8048176,1.6871507,0.47114864,0.3798866,0.94831944,0.96551,0.8300558,1.2610157,-0.8496667,-0.46504456,-2.1662261,-0.0062172166,-0.28810218,-0.42936334,-0.23767781,-0.05893054,-0.49843535,0.61868435,0.7578668,-0.9730871,-0.0044546956,-1.0034057,-0.4924449,-1.092142,0.11930111,0.16530089,1.7765111,0.29526135,-0.05986721,0.4710924
-1.7015938,0.21263073,-1.9277422,-0.51922,1.6742903,-0.33519563,-1.0928605,1.1037582,-0.14014596,0.47265244,-0.54957116,0.6372571,0.051294625,0.0866587,-0.15541542,-1.1223397,-0.70847195,1.1112422,-1.1536164,-0.43472213,-0.6686547,0.15326187,0.1757246,-1.885785,-0.20923313,-1.1909571,0.69840366,-1.9004796,-0.7656902,0.16811621
0.70500505,0.41578993,-0.92984796,-0.70940155,-1.0602666,0.8701256,0.031088846,1.3637009,-0.26475292,-0.46376523,-0.051145833,-0.6695085,-1.2740763,0.055464767,1.0047635,-0.3540663,-0.41246852,0.7057791,-0.27807662,1.4275408,-0.94984096,0.2079038,0.27845094,-1.7168981,1.1069014,-1.516926,-0.8022291,1.1788776,0.6023119,0.19602652
-1.3878571,-0.15029968,-0.41906443,-1.3850964,-0.2303824,-1.5421219,1.6080977,0.6202617,-0.06688905,-1.275813,1.4620258,0.6448066,0.14490868,0.4497386,-0.8313599,-0.026173733,-0.7562394,1.7735682,0.6878284,-2.15093,-1.6600933,1.9965469,-1.7266386,0.018601304,-0.65410733,-0.0077608717,0.02073152,-0.09802603,2.1416154,-0.48369268
-1.6445115,1.3159797,-0.46174875,-0.32338485,0.83048403,-0.9796308,2.2782335,-0.17492245,0.7852494,1.8601438,1.3842317,-0.2812401,-0.6714945,0.33836237,0.7927968,0.38840106,-0.028892988,1.0648845,0.39175132,-1.0268317,0.120569885,-0.06966856,-0.93026423,0.69938624,-1.1476288,0.73891765,1.015755,2.1990185,-0.91328937,-2.1007948
0.92003787,1.2383267,-0.21141505,1.4141179,0.39490315,0.15723321,-0.7279875,-0.34530336,-0.33930376,-0.13342112,0.07235863,1.2398177,0.41331974,-1.647236,-0.35814166,0.35722536,1.0897214,-0.5616262,-0.028892478,0.06611729,0.59583616,-0.07814833,0.71128184,-1.6355124,-0.45751774,-1.2432964,-1.9404364,-1.8541005,0.38305917,2.082086
1.2040648,-0.08849293,-0.038101695,-0.4251582,1.2130964,2.4382088,0.05859207,0.27821133,-0.39881542,-0.00552953,-0.36948147,-1.4056218,0.95770264,0.27817345,1.6704026,-0.98733467,2.3408253,-1.1530731,-1.1216878,1.7401105,0.23278718,-0.7019827,1.0442326,0.73775107,-0.41936493,0.022037122,0.63019675,-0.86361563,0.36402726,0.17633402
-1.236291,1.0487679,1.6501442,-1.2915504,0.6518693,-1.5491326,-0.40606707,-0.22198139,0.123612516,0.2546412,0.2517152,1.4670081,-0.31271017,0.14180183,-0.020113923,-0.29063448,-1.1712172,-0.17280377,0.20706598,-1.1169715,-0.3198714,-0.018576294,1.1369246,0.03244558,1.005127,-1.2088462,-0.43232095,0.48813373,0.31537315,0.08777258
0.7467442,0.39373636,0.9534945,0.46184742,0.14676887,0.20577712,-1.4184453,-1.5570551,-0.1630625,0.73300976,-0.25548556,-0.61374724,0.21385401,1.4861515,1.0109024,-0.1559714,-0.8746588,2.0427074,-0.3840698,-0.8444292,-0.053172756,1.6119833,-1.0182866,0.8236447,0.91644496,-0.6517795,-0.8379799,-1.9150871,-0.76797706,1.124283
-1.4354163,-1.1186255,0.34910822,0.3368645,0.8248909,-0.91206837,0.07625845,0.81271243,-0.9406138,0.7071197,-0.80925703,-1.3350354,0.24389635,-0.300702,0.45572558,0.42482838,1.7634025,0.18258353,0.5501403,-0.04872913,-0.31560662,-0.2958346,0.56615686,0.03337609,0.15843919,0.60171324,-0.622843,0.20632245,2.4564579,-0.5438575
0.21958393,-0.008549768,-0.39510375,0.34312513,0.3997403,0.57663125,-0.39979708,-0.24926348,-0.98147374,-0.050139546,-0.17044546,-0.41487485,0.3155215,-1.6864904,1.0167675,1.4700505,-0.34476972,1.082622,-1.7426016,-0.6184343,-0.17972192,0.49607736,-0.6939835,1.1181365,-0.3207964,-0.27530473,0.4825151,0.93061954,2.7476563,0.13823943
0.8896393,1.1473659,-0.9359564,-1.5273318,-0.91447073,-0.86919034,0.31246528,-0.6638108,0.5174878,1.5621026,1.0108194,0.37218925,-0.23340239,-0.9362309,0.23968779,-1.0974274,-0.40544185,-0.29294863,-1.3241798,0.54095024,1.2756627,1.4346153,0.73081446,-0.58294886,-0.5880741,0.37909156,0.8944383,-0.48645127,-1.5268538,-1.5838908
0.2178161,-0.07536251,0.6624889,0.16339986,0.41035953,-0.19054791,1.4065466,-0.8195069,0.8160211,-0.3055352,-1.4151821,1.5388243,-1.2157896,0.33212894,-1.8102876,0.20321235,-0.96024436,0.70611197,0.9756171,1.6266037,1.1662643,0.48895034,-1.0495576,-0.20716514,0.95499873,0.7252175,0.33198225,0.47591424,0.3297877,0.5496313
1.4438947,0.2531898,-0.080174655,-0.36313248,-0.15255527,-0.3550537,-0.08798612,0.31803733,0.2776462,0.18666393,-2.8282077,-0.8841291,0.13297325,-0.8271138,0.362559,1.3684864,0.33381093,0.1801268,1.7491374,-0.25287548,0.15702774,0.23749126,-0.066382185,-0.47568396,0.114169315,-2.2360463,-0.7358877,0.67185766,-0.057766333,-0.7939879
0.51747936,0.53575075,-0.14669794,-2.7332923,-1.3120569,-1.5685081,-0.058724057,-0.92578274,-0.8377878,-0.8531972,-1.4334413,0.1570614,0.24293353,0.3978331,-0.057372015,0.9017445,-0.17158628,0.20838594,-0.44777718,-0.6926423,1.309738,-0.9849148,-0.45686752,0.027310079,-0.30082133,0.29475853,0.38422653,1.761361,0.004224396,1.1752892
0.31163424,-0.53348595,0.18610406,1.6317832,0.86861277,-0.07063333,0.061321802,-0.5301795,0.95302874,-0.8685435,0.33547944,-0.86594296,-0.7423754,1.6926672,-0.18028972,0.83858764,0.683661,-0.35352823,-0.14793582,-0.060805168,0.15478952,-0.7641389,1.2142634,2.2489781,-0.26931357,-1.2437744,-2.1160824,-1.2770032,-1.5206704,-0.58503217
0.7325049,0.12013341,0.704674,-0.02368658,0.12570061,1.1687136,-2.3045382,-0.76152915,2.7572622,1.0634006,-0.34562325,-0.7952361,-0.47092375,-1.9985893,0.43619403,-0.52968055,-0.19405352,-0.48302776,-1.10964,-0.15953167,1.4205664,2.5495408,1.3909183,-2.3865569,-0.7033922,0.23848164,0.9278913,-0.30340165,0.25515783,0.092718706
2.0419147,-1.2536926,-1.3359411,0.62372315,0.3909875,1.312524,0.17183907,0.27705455,0.36432824,-0.984835,0.7599752,2.8128946,0.391187,0.9020175,-0.7120773,-0.13959932,0.21778664,-0.61572707,-0.90418947,1.2643399,-0.5251555,-0.11102537,1.2370656,1.5575955,0.9885713,-0.06289575,0.069087975,0.04294238,-0.11356717,-0.7203843
1.4331979,0.14162284,0.83582217,-0.20698713,0.9738321,2.0912447,-0.23646316,0.7375436,0.17927454,-1.4739985,1.9944433,-0.48731893,-1.1994879,1.116199,-0.08487939,0.24577548,0.016815042,-0.6127436,-0.7872712,1.0104182,-0.11731208,0.11132873,0.374698,-0.17927793,0.6854807,-0.4258282,0.67466223,0.44973922,1.2866151,-1.8331923
-1.2642062,0.22097068,1.6001112,0.17462981,0.19231059,-0.03418027,1.0150013,0.10168076,0.64469975,0.3910734,-0.19319817,0.23550351,-0.490601,0.33371046,1.3065847,-0.3022146,0.7892006,0.24349849,-0.31481078,-2.1165211,-0.32331863,-0.8087988,0.28750423,-0.02388328,-0.7023938,0.11906866,1.073806,0.21646751,-0.120020896,-1.4448588
-0.44871458,-0.47133538,-0.80447006,1.1545926,-0.89274424,0.8703122,-1.4695034,2.0969546,-0.23438147,0.18612191,1.1955804,-0.8976365,-1.0650164,-0.3836289,-1.4513733,0.56846917,0.37225494,0.31503868,-0.0744435,0.12262508,-0.85986483,0.5178098,-2.681698,-0.40534407,-0.25085136,1.0089241,0.37095124,0.09583662,0.03725928,-0.21711643
0.901127,1.5912602,2.6855829,-0.059486244,0.23646484,-0.11858615,-1.6336416,0.37090045,0.9774735,0.38299555,-0.35376245,-0.685524,-0.34631786,-0.84636015,0.063812114,1.3221073,7.9884863E-4,0.74503595,0.94028795,-0.40926236,-0.18937553,0.7153581,-0.22810341,-0.84121585,0.542375,0.6284489,0.631871,-1.2663974,0.4851123,-0.56589687
1.4378667,0.13586423,-2.3177516,-1.1380625,1.9353685,-1.2219206,0.3966923,-0.58636117,-2.0908093,0.81260127,-0.019934382,1.5802422,-0.65084964,0.18228185,-0.008869831,-0.5385682,0.92379063,-0.28066328,-0.012884737,0.5912884,-0.21423051,1.3867178,-1.0123702,0.30651957,-1.3136979,0.6082106,0.57769436,-0.9277674,0.14756162,-0.3309357
-1.7416776,1.200504,0.32705998,0.44177222,-0.9132221,1.928964,-0.9147749,-0.403726,-0.6385638,-0.2393344,0.8898082,1.1958123,0.98854434,-0.022365337,1.7045035,1.4031347,1.2448938,-2.538966,-0.1344589,-0.64799845,-1.3586028,2.395591,1.0788426,-0.82884127,-0.44554862,1.6066986,-1.3961297,1.3013207,-1.3722017,0.99039704
0.45946163,1.9763224,-1.0866914,-0.5520202,1.2552172,-0.32098353,1.527065,0.050294418,-2.5915866,0.9969814,-0.5995808,1.6969938,-0.58649266,0.3611116,0.6636194,0.96975565,1.7470726,-1.2221744,0.4117309,-0.7078157,0.4086586,1.3761424,0.6205234,-0.65643626,3.1598632,-0.6587361,0.0054604625,-0.7517341,-1.0041293,-0.20304018
-0.56093985,-1.3855854,1.0493994,1.1950814,-1.1078856,0.52500296,-1.0628572,-0.8442701,0.26783225,-0.7852431,0.56051546,0.09243088,0.4207476,-1.9403211,0.4247708,-1.7001615,1.1744834,0.72242635,0.60234773,-0.3834374,-1.524121,-0.4854152,1.8816261,0.7392863,0.78863794,-0.52215815,-0.7794426,1.3864485,0.52046466,0.12119362
0.18295828,-1.0026227,-0.12894008,-1.3457682,-0.08808006,0.8414906,0.7941058,-1.560894,-0.5568747,0.82733274,0.122136876,1.4327482,-2.3501487,0.91061497,0.987991,-1.1296904,-0.750019,0.63685733,0.0029640428,0.11137655,0.60199076,-0.33907896,0.39061356,0.039567973,0.03742684,0.066391796,-0.035158504,-1.3454583,0.2665219,0.08995954
0.8061033,-0.8488322,-0.045662995,0.5606602,0.35234836,-0.88508356,0.5231126,0.7909428,-1.7360982,0.753413,-1.1228138,0.021634804,-1.493813,0.3733176,0.13358596,0.86475927,-0.7749189,-1.7230905,0.100491844,0.938834,0.5455995,-0.22465284,0.60547113,0.6332239,0.5375541,-0.24337807,-0.10662086,0.4322602,-1.337815,-1.8320719
0.106896654,-0.73576254,0.23621947,-0.24497771,-0.65726024,1.0432959,0.33552918,-0.013009317,-0.51623094,-0.19384246,-0.16390592,1.3387029,-2.2183292,0.36364016,0.64342296,1.9781784,-0.031959273,0.41841137,1.0092199,0.004788145,2.1315873,0.63843143,1.4167866,-1.1698042,-2.1589336,0.57887805,0.87938595,1.1524497,-0.45437402,1.85585
-3.1070077,-0.16709818,-1.0012352,1.118194,1.6565343,-1.4305488,0.3180147,0.19974157,-1.8143711,0.88723,1.4435844,-0.37434253,0.674946,0.32770482,-1.0387826,-0.93616575,-0.0091715045,2.329573,-0.49076992,-0.34237126,-1.3986392,-0.7098661,1.0243825,1.436513,-0.23512466,0.32630947,1.4564967,0.116345875,1.262638,-1.3107853
-1.180777,-0.8935485,1.0363238,-0.8563778,1.413365,-0.37048987,0.21058567,-1.9989498,1.4009967,0.09750146,-1.5135366,0.7044054,-1.6476486,-0.37048307,0.30931556,0.5128776,-2.0850937,1.3488716,2.755718,1.1960013,0.8394718,-0.5521665,0.929094,1.7243841,0.06925427,1.0421069,0.015089961,0.2993534,-0.77709365,0.65910214
-0.905567,-0.18407454,-0.64359653,0.1559303,0.17562431,-1.5722125,0.003974479,-0.41358995,-1.2796661,0.55354995,0.03444584,0.07207055,2.642794,0.25124097,0.51278293,0.1318821,1.1547427,0.31165314,1.8229365,1.127431,1.3427144,0.25334796,-1.0460593,-1.5310372,1.2960352,-0.10725441,0.23538838,-0.6475253,0.49330115,-1.0990871
0.9604782,-1.0013983,-0.36337018,-0.34133673,-1.1701328,-2.5870314,-2.1999068,1.2004876,1.3593044,0.034425516,0.29157072,0.77586824,-0.13923343,-0.52654785,-0.8885286,-0.04710003,0.9681728,1.1223962,-0.033375442,0.3035303,0.7818173,2.0817,-0.731448,0.7734002,2.5901039,0.01305415,0.124273546,-0.35945272,0.5549352,0.8284528
-2.3637886,0.31352076,1.6418897,-1.0554192,-0.07024889,-0.39236763,0.94483286,1.4567236,-0.49823177,0.6242716,-1.7780348,0.63692045,-0.69722515,1.0838138,0.15691899,-0.10974667,0.92262506,0.99429965,0.10882562,2.0605485,1.0771323,0.26112753,0.09868088,-1.1253412,1.9036503,0.1162743,0.7775447,0.9304422,-0.35365745,-2.04323
0.80421126,-1.08541,1.073639,1.2834846,0.54211885,-0.36074004,0.83153796,0.97835463,-1.6131645,0.43961343,1.9674025,0.053673763,3.2612169,1.3170948,-0.973176,1.4148259,0.5148505,-0.0016675106,0.19568676,0.6000277,0.43379897,0.71162206,0.060607538,-1.0381516,0.06987382,-0.09108242,-0.24677461,-0.53429776,0.5823554,-0.24040604
-0.6552462,-1.1721839,1.9174898,-1.0134472,1.9654703,0.26372978,1.5776283,-2.752727,0.85880136,2.2517872,-0.044622798,-0.025533795,1.0718064,-0.5607474,-0.9075514,-1.3166606,0.18377788,1.225857,-1.2791226,-0.19737886,1.0426368,-0.017522918,-1.921468,0.50286216,-0.36463198,0.7181386,0.04264564,0.46391404,-0.6933673,-0.12631756
0.7670219,1.1877254,-1.897468,2.391151,1.4739957,-0.1932321,-0.9387662,-0.7320075,-0.75829035,1.5793302,-0.47324508,0.0072049717,-5.021044E-4,0.14599137,0.80203176,-0.38950923,-1.4470196,-0.16341098,-1.4000171,1.4323574,-1.0655717,0.021810794,-1.4537635,-1.8669168,-0.42741087,0.15871775,0.4865799,-0.52324927,1.344086,0.7009533
1.0129092,-0.96743816,-0.18402168,0.5087478,-1.1127053,0.92974865,-1.7880296,0.9864678,-0.4256445,-2.0654416,-0.8515448,-0.05766977,-0.7017069,-0.505717,0.06431119,0.29294226,0.31881982,1.7592515,-0.17906342,0.940401,-0.16704553,0.71459705,-0.21401528,-2.2195895,0.383995,-1.2320284,0.060820874,1.2290981,0.81583744,-0.034483183
-1.5466683,-0.09489278,1.6248789,-1.2944112,1.6992097,0.44929278,1.8450469,0.56020874,1.6876674,1.5157424,-0.40041748,-0.12264847,-0.5580617,0.14189628,0.2655133,0.51305884,0.27905232,0.5204839,-0.7558245,1.703255,1.261584,-2.278033,-0.71488696,0.11601779,-0.76865953,-1.9418011,1.3997256,-1.5054517,-0.8469609,-1.130561
2.969182,-1.2124035,-0.23004286,-0.18649304,0.15029985,-1.007837,-0.4294142,-0.3617549,0.5479491,-1.0607365,-0.6449517,-0.46637097,-0.018040977,0.07619564,1.2462672,-0.4856365,1.5601178,-1.3354356,0.30604187,-0.7864412,0.26103863,0.42219305,-1.2666006,-1.5182506,0.044898663,1.9726212,0.08516116,-0.5498317,0.18239753,-0.029495008
0.16823845,0.23773727,0.63746935,0.23185529,-0.49329963,1.1164889,0.6092392,-0.75186974,0.9063851,-0.86242795,-0.09762112,-0.8992162,1.5625231,1.4368643,-1.3129412,-1.588032,-1.8110114,2.818952,1.1824605,-0.95311755,0.25919613,0.8357017,0.37896764,-0.24595144,1.4592397,-1.071909,2.1214037,-0.12463468,0.779068,-0.38027743
0.47781488,1.4748919,-0.21669117,0.9334916,-1.0117015,-0.6927586,-0.45806554,-1.0021279,0.18856233,-0.8359983,0.12342723,0.6862936,0.028023057,-0.06390115,-0.10665472,-0.13790144,-1.6163839,0.8646011,-0.80028,-0.5812298,-1.6638781,-0.04027063,0.42202154,-0.74875325,1.3753128,0.6891963,-0.41319802,2.067027,-0.8338238,-0.1872576
-1.2085809,0.85003674,0.13362229,0.9242692,-1.8186493,0.6005082,0.03929555,-0.20936388,1.0046673,-0.6343966,1.5637324,0.782601,-1.8344322,1.0130596,0.4168739,-0.38940164,0.4687094,-1.1188858,0.8215705,0.60732824,0.42451936,-0.06465804,-0.93720436,0.15520683,1.1203246,-0.5761579,-1.5502057,0.9570171,-1.1999218,2.064301
-0.701585,-0.61297756,0.02237395,-2.4378767,1.4616803,-0.44337747,-0.26795653,0.576514,-1.4212509,1.4824191,-1.3196315,-0.10147226,0.95664924,-0.017216558,-0.7289666,1.0465963,1.3913811,-0.3210305,0.40949374,-0.08481153,-1.476087,0.2601379,0.73668313,1.2467767,-2.4638703,-0.61746573,1.1570237,0.20151518,0.4765967,1.4810388
0.0073747295,-1.4079196,2.3323982,0.7277884,-1.579589,0.75861007,0.3242993,0.14584284,0.25654617,-0.116209455,-0.31688228,1.5233301,-0.3062592,-0.025425432,-0.54916453,0.9758949,-0.35440478,0.5033983,-0.14380054,-1.7198253,-1.2095604,1.526794,1.1178585,0.8362197,-0.36455563,0.6210811,-0.0060120667,2.4961138,0.47298464,-2.492902
-0.60556704,0.9124502,0.045157548,0.4569176,-0.56972754,-0.23976612,0.7098512,-0.022586277,1.0892539,0.8056033,-1.0950598,-1.0743176,0.41953903,-0.8168349,-0.7334651,1.2017378,-0.037590723,1.1085719,0.5728556,-1.6840305,-0.059400596,-0.9100051,-0.027460806,-1.5373534,-1.2746106,-0.16021004,-3.0212526,-0.34179533,0.39324957,-2.495048
-0.8022736,1.4870236,1.7959027,-1.2602283,0.4794366,-1.0343595,1.4425126,0.7036021,-0.6457909,0.3489348,-1.0082362,0.5854528,0.58933264,-1.6426218,-0.9623581,-2.5181272,-0.13508728,-0.86871296,-0.95056224,-0.83086336,-1.7105972,0.97140586,0.54993707,1.185959,1.5402075,-0.8102862,-0.09013168,-0.3586159,-0.044664938,-0.4523466
0.59329116,1.4578685,0.18050832,-0.45300844,-1.4335799,-0.003896379,-0.3784095,-0.29317805,-1.8442378,1.4883655,1.3072342,0.18665999,2.4714348,0.18941163,0.90340215,-0.015576714,-0.20877932,-0.75273126,-0.27644938,1.9992145,-0.19726753,-0.3198592,0.5340925,0.0047646067,1.5262909,1.5037388,0.5775561,-0.12358085,-0.100526646,-0.8642554
1.2334744,-0.36251098,-0.9082402,-2.4894857,-0.06678584,0.11393533,-0.42187345,-0.587649,0.7962071,-0.53456914,-1.9119285,-0.19609785,0.12815538,0.8251068,-0.24566571,0.531875,1.1061213,-0.1290559,0.6326333,0.05754799,0.039999787,0.048433058,-1.0361346,0.23972978,-0.9691835,0.4007513,0.5520284,-0.30265954,0.32522827,-1.199806
-0.21433121,0.48838255,-0.579077,-1.5923448,0.31362078,1.3971338,-0.8679641,0.08819864,0.8500376,-0.20548883,1.72024,0.5106352,2.099264,-1.8834885,-2.0885937,1.2778838,0.36368412,0.67666173,2.2396476,0.134086,0.7601529,-1.2840221,-0.0315861,0.98563755,-0.6657939,-1.4033452,-0.5144245,-0.26539433,1.6807323,-0.8544052
0.52227044,1.9468857,0.58811665,0.9478855,1.7796584,0.47612253,-0.82912534,-0.18926302,-1.0198007,0.83308285,-0.80683756,-1.0330092,-0.7397072,-0.85094404,-1.4077432,-1.4064295,0.5366808,0.43689615,-1.6645452,-0.81765056,0.8885104,1.2594033,-0.34537184,1.5049167,-0.19531627,-1.1190388,-0.9930267,-1.0147232,0.026458573,0.3600745
1.5266474,0.3966519,-0.025988882,-0.54885423,1.5412996,-0.4306937,0.75230086,0.87113416,0.16780244,-0.0833654,0.3433223,-0.21512102,-0.14634351,0.26469734,-0.48372242,-1.6175711,-0.58344936,-2.225768,0.87112325,1.4161243,-2.6026134,-0.53567356,-0.85895455,0.44171393,1.2342963,0.72589576,0.32671666,-0.5353214,-0.8202941,-0.24069698
-0.2280097,2.1769724,0.17677699,-0.95086396,0.5881344,0.02161899,-1.3861865,0.3261113,-0.04895153,1.2004709,0.19137529,0.33601332,0.38548777,0.3149457,-2.336581,-0.38264027,-1.6126882,0.54695284,-0.80241954,0.2791864,-0.04702161,0.53691727,-0.1303814,-0.54833543,-1.3374331,0.76414883,-0.5919575,0.7867483,1.2766038,-0.5726446
0.21629074,0.878386,1.4326221,1.0655255,-0.7857203,-1.0192125,0.5731093,-0.2673788,-0.106395744,0.7967407,-1.411772,-0.8693974,0.16145974,0.09630404,-0.20546347,-0.6799738,-0.3250157,2.8863938,-1.4102981,-1.3554103,-1.0809358,-0.10843928,1.4395136,-2.0798838,0.5320878,0.74942803,-1.6661396,-0.87952036,-0.084101155,0.8612136
0.32422796,0.38756847,0.6189946,1.188044,-0.12606864,-0.17292571,0.91868275,-0.6202733,-0.96178603,0.10376988,0.32217354,-0.4618561,0.7472201,-0.25491714,0.33177844,1.6131316,-0.48433778,-2.3674855,0.27459106,0.20784296,0.7930491,-2.0173266,-1.521757,-1.7222182,1.7693505,-0.20639694,-0.49372455,-2.796507,1.1006275,-1.1488395
-0.059896734,0.0786703,-0.0760442,0.90389496,-0.13957414,-0.7081817,-0.45406783,-0.27320355,-1.0555224,0.8897614,1.3792326,-1.2028813,1.3548697,0.84927064,-0.6927799,-0.35613215,1.5759073,2.0036619,-0.23213679,2.0324428,-1.1696423,2.297535,0.717297,-0.273659,0.9487328,0.98526525,-1.3216757,-0.6073231,-0.24889302,-1.2022264
0.9689723,-0.3688967,1.0047095,-0.67768764,-0.7551166,-1.1715481,0.013599483,-0.3736195,-1.2143989,0.99487114,1.7322844,1.063669,1.3093526,-0.6376761,-1.0662957,-0.56024474,-1.3994291,1.2064662,-1.1949046,-0.5748612,0.65420777,-2.2963324,-0.47027895,-0.951232,0.58632165,0.92169094,0.56219846,0.48935023,-2.1226354,-2.155326
0.5972966,0.22667274,0.6896974,0.6699348,0.3694936,-0.36053783,0.46980733,-0.62078583,1.2150675,0.377568,1.1125358,0.7528122,0.19844557,0.5058294,2.1098328,0.77052903,-0.053561196,-0.026872633,-0.07775391,-0.17405406,0.18388674,0.6567471,-0.3476841,0.18935116,0.8472346,0.8036706,1.7798117,1.0155087,0.73317266,0.41640896
-0.6175513,-0.46616763,0.8419769,0.56011957,0.73118055,0.7069065,-0.13184448,1.3813225,-2.1658473,1.5672762,-0.9269063,0.07351172,0.12518515,0.8974513,1.3721503,0.5775625,-0.8793712,0.09112415,1.3945433,1.0846987,0.1614893,-0.11678549,-0.3017978,-1.0778004,2.3966963,-1.49525,-0.2640489,-3.2095697,-0.24353196,-1.0683906
0.40106535,2.160486,-0.007334022,0.9140473,-1.9128262,-2.3338194,0.9702298,0.37711442,-1.0054467,0.8213071,-0.30145526,-0.95475936,-0.81834424,0.24021815,1.0923442,-0.81630653,-1.8390958,-0.40357962,-0.8484953,-0.79768544,-0.3748702,0.15910046,-1.0353955,-0.4438084,0.51989496,-1.3048666,0.52778083,0.5664657,-0.757272,1.5713849
-0.40249687,-0.5317671,0.590123,0.1940734,1.657923,-0.28027555,1.961439,-0.235938,-1.0044284,0.13017659,-0.7675535,-0.28642055,0.6349907,0.36353183,0.3151501,1.188289,-0.98909885,0.5931875,-1.1674346,1.9140247,1.1376675,-0.12056208,-1.8915308,2.2165883,-1.1518997,-1.0520706,-0.8824853,0.41791248,-0.07435575,1.4994661
-0.38936493,0.8096525,-0.070370674,-0.22369987,-0.8580268,-0.19752483,1.0230484,1.2415981,-0.27956674,1.6803603,2.127654,-1.2094884,0.35740942,0.3934893,0.11436916,0.24590205,1.023352,-2.3205633,-0.46595418,0.93166775,1.9301704,-0.4390507,1.6886556,-0.13564499,0.57650125,-0.9361939,0.46828043,0.63759,-1.2656125,0.46065533
-0.19315292,-0.12618303,0.48754308,0.27636686,-0.10505265,-0.84448737,1.4149576,0.49491346,-1.0677654,3.4039357,-0.06763599,0.24983867,-0.8496674,1.3916042,-0.37820303,0.076157555,-0.6135638,-1.3056408,0.04994966,1.5866864,0.89629143,-0.2977289,0.47183952,0.25113645,0.7014289,-0.24398357,0.6111496,1.5404012,-0.9542079,-1.5770092
-0.69527024,-0.33824036,-0.022289218,0.44428208,0.17260233,1.0552773,-1.2819886,-0.10276376,-1.7879865,0.73972857,0.8311146,1.2308434,-1.5646492,0.7078498,-0.39303324,-0.21025777,1.2293774,1.2222459,0.15089789,-0.98057836,-0.49406472,-0.044244226,0.9144309,-0.18473019,1.4410686,0.24626796,0.18143034,0.013361118,-0.7808074,0.53746945
-1.3190373,-0.29982162,1.4394367,-1.1232567,-0.10204386,-2.5126925,1.1755996,-0.18291867,-0.98404413,1.4488928,-0.6646718,0.49497998,2.1124597,1.3425258,-0.8665796,-0.17375848,0.061448615,0.2909126,-0.35097697,-1.5881288,-1.6632261,0.5218204,-0.9033975,0.21202923,1.0251291,0.3693036,-1.1948291,-1.1043556,0.37153643,-0.8911346
-1.109972,0.18075457,1.1591997,1.6219169,-0.9749685,-0.40192732,0.008971151,-1.569852,-3.535661,-0.19067663,-1.4516726,2.4643543,1.2999448,1.3871716,1.6269408,0.055302944,0.07409719,0.9706359,-0.34145036,-0.049916606,0.12936702,-0.05365096,-0.24479553,0.71300983,1.6347065,1.6867491,-0.31380194,0.52151453,-0.12291683,0.9415204
-1.91367,0.12923904,-0.70225066,0.3814996,-1.4257513,0.78382546,0.92903405,-0.69706684,-0.017402736,0.4025306,-0.30301344,-1.7121172,-0.95020187,0.8481704,-1.5814703,0.14512147,0.32803094,0.7258477,-0.7445156,0.77082026,1.856569,-0.85229033,-0.116017036,1.167369,0.1627964,0.2485832,0.006648649,0.18701534,-1.1389693,0.40515342
-0.9269274,-0.74625075,-0.533756,-0.75011253,-0.40644348,-0.71289194,-0.21452177,-0.29070216,0.66948235,-0.7385529,-0.32224914,0.23138207,0.6274144,-0.21767078,-0.67769283,-0.91265017,0.75394994,0.80968356,-1.44872,0.28171217,-0.9528801,-0.2641741,0.52955735,-0.15901592,0.78781235,-2.1377053,0.7455533,-0.20340739,-1.0606086,0.38416177
1.5461371,0.06366217,0.10581882,0.15467164,-0.4227728,-0.40907043,1.3571113,0.46284488,-0.4363255,0.7169415,1.5156708,-1.4338266,-0.3902928,-1.8334864,0.9892911,-0.6471251,0.17556922,1.5311562,1.0330591,-0.98775786,0.6541766,1.1487813,-0.7056798,0.5487969,1.2722788,-0.5951701,2.3923485,0.30102345,-0.37711442,-0.3794972
-1.3767697,-0.71465075,-0.20247746,-0.15609284,-1.0908617,-1.934142,0.0037411435,0.47349083,-1.1527878,-2.8730273,0.2060765,1.9238161,-2.3845255,0.32712722,-0.53930265,-0.17022488,-0.08915864,0.23393181,1.642328,2.4615798,1.9011108,1.24674,0.848379,0.29585078,-0.5162382,-0.15361176,-0.7772495,-0.55437654,0.40358555,0.11124686
0.059610523,-0.5802479,0.65443146,-1.5323108,0.072294176,-0.98473316,-1.049398,1.0550992,0.042568758,0.5067843,1.2202524,-1.6793213,0.2665195,1.6541684,1.6436425,1.3534408,-0.039835494,0.71348405,-2.1357038,1.3871685,0.4285499,-0.9609199,0.6303832,0.009715779,-0.35042334,-0.9409126,-0.7425069,-0.9640715,-1.1986479,-0.78795534
0.08115753,-0.27397388,-0.14575285,-0.6041543,-0.34485465,1.5460978,0.16550724,2.4485028,0.34929723,0.49634552,0.3973566,-0.24973284,0.25164315,-0.1056043,0.45185652,0.64118266,2.1674967,-1.7519944,-1.7411276,-0.79951435,0.7174068,-0.5308876,0.006222739,0.21827905,1.012186,0.25455645,-0.5745727,0.8360982,-0.9042633,-0.03805619
2.569125,0.48891726,-0.16624418,-1.7886307,-0.85509896,0.88360137,0.3614704,-0.11879768,0.09114375,-1.0894891,1.5431904,-1.170367,1.2555323,-1.0140891,-0.2310908,-2.18949,0.34206226,0.18362816,-0.32497758,-0.14264585,0.8752688,0.12114939,1.0767823,-1.349935,0.20865095,-1.0755581,-0.81671786,-0.8047079,0.8657004,0.1505517
-0.78716844,-1.5390421,0.2882445,0.09912373,-0.5649762,0.93515635,0.74042267,-0.050406866,-1.3376641,0.32140338,-0.711473,-0.19880705,-2.5104046,1.1542212,1.2576785,-0.30154133,0.6317136,-0.26181883,1.9625185,-1.7606591,-0.21120897,-0.7464439,-0.11604657,0.62057585,-0.023148501,0.313361,1.2884339,1.3138866,-0.6668037,1.5583382
0.2416042,-0.42748716,0.8627114,0.04489546,-1.3390509,1.358918,0.77612513,-0.18520598,-0.010344642,-0.654263,1.1769056,0.8688252,0.40276724,0.82039595,0.58142734,-0.15383634,1.1288011,-0.039943606,-0.32271996,-0.5308418,0.7299448,-0.10411478,0.34836817,-0.26604342,0.734094,0.1730978,0.322119,-1.6087784,1.3229275,0.44520095
1.1987077,-0.9434057,-0.12246195,0.5121092,0.45028555,1.5530003,-0.9561978,0.9187343,0.51508754,1.213176,-1.616563,-1.4067329,-0.20858616,-1.5987973,-0.65511817,0.5418182,-1.4279408,-0.8758219,-0.88290405,0.0018380255,-1.1544309,-0.048498068,0.22008646,-1.9837211,-1.6608038,0.28922066,-2.0719974,0.20482156,1.0677042,0.2821839
-0.19245079,2.2476795,1.0982099,-0.36753017,-0.18293858,0.3274176,-0.6293346,-0.18205929,-1.4342563,-0.06844987,-0.8070381,0.17494087,-0.48804355,-0.5742551,-0.59474486,0.4439807,1.817187,-0.5285885,-1.3078899,0.8156392,-0.8678315,0.5637246,-0.98624897,-0.48943496,0.3011289,-1.2329284,-1.322561,-0.15312393,0.99291736,0.40793455
-1.6214051,0.53530794,-0.006497869,1.6154866,0.3808931,-1.3452638,0.52372956,0.086204536,1.1637499,0.7170379,1.1375674,0.3355134,-0.6009271,0.22359805,-1.2807114,-0.65309364,0.6975155,0.42567247,-0.500047,0.3143277,1.7518173,0.8438808,-0.22383156,-1.5054684,-0.5383584,-0.647512,0.14609492,0.7195344,1.1699656,0.26353812
-0.28415474,0.6658975,0.8402052,-0.3896289,-0.11901267,-0.3387405,1.0651894,-0.06305301,-0.19790402,-0.4336832,0.4166274,0.38619658,-0.38585588,-0.060267102,2.8157458,0.1594408,-0.63636154,-0.032364722,0.84705716,-0.17108461,-0.74699545,0.7710874,-0.48507348,-0.838517,1.612375,-1.721525,-0.56087035,-0.58231586,0.59450144,-0.2906611
-1.4436611,0.20913881,0.18837295,-0.27114207,-0.64811546,1.5434537,-0.63488024,-0.7380135,-0.5988964,-0.15071362,-0.060647365,0.40721354,0.63604367,0.914067,-0.7474509,-0.34140337,-1.1646744,1.6620907,0.19153073,-0.13265249,-1.4068834,1.7763326,-1.1310753,0.029960357,-0.4808068,-0.0523589,1.4249433,-1.7138875,0.33980504,0.4836647
0.97849417,-0.7633222,2.0445218,1.1658599,0.9127279,-1.4777964,-0.16355215,1.4586796,-0.4485176,-0.50028354,-0.40672374,0.64506465,0.57328,1.0637022,0.12000657,0.79429233,-0.17912365,1.1091092,-0.61262316,0.5332582,-0.7052625,1.2296376,0.80731153,1.1502011,-1.0915928,-0.20151033,0.70374924,-0.111839004,-0.1603704,-1.2400264
-0.5122556,0.21930426,1.0289234,1.5946516,-0.0358202,-1.3051169,0.23698686,-0.3274574,-0.80830634,-0.37082106,-0.25209948,-0.46480116,-0.119134836,-0.5175408,-0.46724623,0.20156357,-1.6394882,0.25128663,1.9592063,-0.96534145,-0.85623854,-1.0945768,-0.037525434,0.3774843,1.1115918,-1.0448681,-2.1859925,-1.8098531,-1.6204522,-1.2659912
1.1102409,0.9230822,0.36576897,-1.8999293,0.13111885,0.62272197,0.99332434,0.08524588,-0.75370604,0.85959965,0.4120958,1.6583215,-0.69580954,1.3471184,-1.448342,-0.70349616,-0.8566429,-0.3994131,-1.1153347,1.943845,0.11473569,-1.0586874,0.028825302,-0.7285275,-0.37932977,0.77693987,1.2634603,0.7065088,-0.85258543,-1.3857354
-1.2509222,-0.37185493,-0.9261134,-0.06740932,0.45692325,-0.4975236,-1.008624,2.0189583,1.110845,-0.30508912,-0.33013457,-0.74961996,1.2742352,-0.1993089,-0.28078324,-0.59018135,0.5404285,1.2263515,1.8699721,0.4064589,0.08239092,0.84077275,0.3936107,-1.1313019,1.2219462,-0.4275233,-0.050813004,0.5210864,0.32093534,-0.11442632
-1.580288,1.4381145,-1.9990288,0.6207711,0.50736487,0.45042515,-0.53523433,-1.0648328,-1.7280365,1.123629,0.20654233,-0.60043746,1.7966855,-1.5362287,-0.74022824,-0.34984812,0.66550237,-0.57256985,1.8326133,0.9210248,1.207068,0.39360675,1.5235637,-2.2283013,2.503949,-0.4996842,1.1400185,1.1302994,-1.1609355,-1.2762052
-0.82382494,1.9865358,-1.0473417,0.579675,-1.0694691,-1.2192622,-0.45671707,-1.5457886,-1.3938023,0.3232835,-0.33568436,-0.17850418,-0.9355212,0.039246835,-1.4144288,-0.80775446,-0.31253088,1.5496839,0.31301692,0.44698474,0.007477684,0.48673213,-1.6151394,-0.6934981,1.4421566,-0.212429,-1.8809675,1.4937662,-1.6938133,-0.15305598
0.22876704,2.2185483,-2.6815567,1.5324949,2.249011,-1.6008391,-0.57806027,0.80720884,-2.3252232,0.8315866,1.4489408,-1.2374938,1.8154644,0.74030334,-0.098128155,0.46388227,0.19249234,-0.4321412,1.0016749,-0.71430767,-0.069201335,0.13731316,-1.6956204,-1.4328202,0.09172622,-1.2647572,-0.096357025,1.410963,-1.229636,-1.5573461
-0.3503066,0.7951702,-0.27284363,0.65878403,0.40360644,-0.49255514,0.46293378,-0.8560732,-3.54394,2.8561049,-0.9940179,-1.3422782,-0.6863352,0.88018435,0.24826479,2.5868354,-0.7577369,0.25173423,0.46303615,-1.4652988,-0.7634682,0.36480358,-0.43764988,-0.64261436,2.2006304,-1.0058289,-0.72027206,0.47590682,-1.8634121,-0.42241997
-0.7901429,-0.5762929,-0.80081534,2.4792283,-1.8406786,0.43762645,-2.299298,0.72291994,-1.8299582,2.3438566,0.068096824,-1.3387028,-0.9981333,0.1955723,1.114461,0.38427937,-0.34162244,-2.2308748,1.0476213,-0.27616546,-0.026291372,0.45161742,-2.0673192,0.12379246,1.7492375,-1.6571867,0.18437473,2.2913978,-1.2624514,-1.1260954
1.1234926,0.79542553,0.052114196,1.1856712,-1.0347989,-1.4243387,-1.2920951,-1.4747628,-2.8108683,3.5146446,0.09553295,0.44719675,0.8973412,0.70572037,1.886506,0.71701586,1.0854439,-0.72947645,0.20604299,1.0075316,-1.9789292,-0.03624064,-1.6126528,-2.5510316,2.131965,0.85938895,-0.44712245,-1.655052,-2.345554,-1.0676342
-0.55674225,1.4553311,0.55136955,-0.50887036,-1.424587,0.9874832,-0.9638289,-0.16338035,-1.5985733,1.6760142,1.9529175,-1.0922947,0.9701491,1.1954148,0.80131686,1.0274296,0.3681098,-0.2953679,0.6664032,-0.1362239,-1.4030039,-0.99013525,-0.8259712,0.499586,-0.51226634,-0.055340096,-0.16655725,-0.44281873,-0.70779085,-0.30860603
-0.24436739,-0.9624569,-0.14032769,0.67071056,0.5065063,-0.29367518,1.3600168,0.8561719,0.50996584,0.8712406,0.2601099,1.5448438,0.8262497,0.93645,0.59699607,-0.07758939,-0.90533596,-0.59711164,0.114161074,-2.2127976,-0.33336452,-0.077945195,-2.068511,-0.024646565,0.7847011,0.35740715,-0.7862927,-1.213586,-0.23273069,-0.12221478
-0.56419116,0.19894364,-0.92199874,1.3861985,-0.9111814,0.5969943,1.0611695,-2.210551,1.6482743,1.294869,-0.87671757,0.1476611,0.27364877,0.5439956,2.0162568,0.19347546,-0.21545404,-0.15716861,-1.5379895,-0.53403634,-0.40583095,0.7571363,-0.37758955,-1.1463301,0.7453345,0.55617577,-0.117309995,-0.5192934,-0.059025064,0.71247655
1.9117963,-0.38967684,2.0039728,-0.40400028,-0.30856404,-1.3956798,-0.4308711,-0.8601605,-1.6864953,0.7738779,-0.0018802269,2.5418198,1.3729284,1.5437672,0.49046907,0.0095768515,0.11117258,0.8098608,-0.195487,0.370151,-0.40661332,0.058598276,-0.24259289,-0.17263898,-0.174369,-0.18358508,-0.08504279,1.1253314,0.44877768,1.0307574
-1.5962151,-0.78626746,-0.85176593,0.7742332,-3.1825106,-1.9244909,2.4476624,-0.9324852,-0.69319516,-0.300394,0.2846835,1.7375716,2.1948316,2.5383413,0.41225788,-0.50176144,1.6275789,-1.1241014,1.317623,-0.91525465,-0.71932787,1.3576862,0.7518049,-0.042517025,2.0314357,-1.93253,0.21621108,-0.67965484,-0.6808488,0.462823
2.9243386,-2.1347501,-0.13478819,0.6725598,-0.8502312,0.91616315,2.000114,-0.5411481,-0.6393297,-1.4909623,-0.2662881,1.2618853,0.6385566,-0.05996551,0.24499096,0.6141398,-0.9615316,-1.7572486,-0.8000361,0.45391428,-1.5360923,0.30795872,-1.1081618,-2.5958898,0.09387131,-1.7553908,-0.4927085,-0.48900527,0.7307157,0.31652334
0.44102207,-2.711932,-0.98246753,0.26958406,-0.7884649,-1.9218762,0.6471949,0.9220085,0.17446464,-0.45705742,1.0390638,0.14089349,2.3705714,-0.42385986,1.5652817,0.7340069,0.06879266,1.0745087,-0.08672802,0.6033519,0.07786951,0.59843016,-2.6952064,-0.08167931,0.3976425,0.62065375,1.0720179,-0.30841726,-0.50214994,1.3999516
-0.86880183,-0.78810126,-1.0597166,2.7550488,1.1850992,-1.0515574,0.9258557,-0.40121022,0.73716533,-1.0402629,-0.4475625,0.47826406,0.19186322,-1.2886314,-0.6995528,1.2295285,-1.509865,0.9741241,-0.71049196,0.58913475,-0.7729817,0.017870722,1.1728337,0.2243658,-0.7472509,0.5452134,0.4758547,-1.5752379,-0.11930118,-2.5227203
0.0051423865,0.062438577,0.25382197,2.6909666,-0.13072158,-2.164517,-0.010311558,0.15414755,-0.45290378,-1.8513564,0.3395063,-0.50432,0.6291533,-0.11673207,-1.5953324,-0.053624827,0.9019558,-1.7458781,1.1758792,-0.31679094,-0.5427743,-1.086006,-0.20632555,0.7774318,1.22967,-0.46735302,1.6550817,-0.1956071,-0.24568132,-0.54252964
0.042728256,0.13865325,0.5893587,0.6338303,0.1815184,-0.6748888,2.1163962,0.42246002,-0.948879,0.6199535,-1.1736444,-0.64461774,-0.39704126,0.5499893,0.22767632,-0.21843176,0.8327983,0.6096684,-0.2764134,-1.8070337,0.03809262,0.07751745,-0.9445322,-0.5715594,-0.20197058,1.2636218,-1.1217226,0.4983662,-1.2866007,-1.627887
1.0558816,1.6102383,-0.95522696,0.13370462,-0.6683766,0.4366484,0.51381135,0.07565114,0.33627516,1.053795,-0.44998223,0.80139774,-1.355253,0.6866106,0.56491035,-0.37183538,-0.010740712,-0.6418894,0.8314049,-0.3703,0.24853304,-0.80513006,0.6529831,0.11620103,-0.18899499,0.10861084,-0.54357916,1.433109,-0.8490731,0.14511617
0.53105855,-1.1622453,0.7168739,-0.16808401,0.05136222,0.4569378,-1.2990443,-2.039826,1.1884297,-0.5284334,-0.19592512,1.3226204,1.4381758,1.1458818,0.20473081,0.2695181,-0.15567441,1.5702611,0.2949244,-0.33099213,0.71984214,1.3615221,0.22072636,-0.21466039,-0.076759204,0.31752968,-0.45144925,0.5184963,0.5475159,-1.2892243
-1.1990525,-0.07226886,1.0652487,0.09953847,0.15941633,-1.7790371,0.60121214,0.48283225,-0.37543723,0.9928015,-0.09323211,-0.27217725,-0.42805707,-0.22343391,1.0136294,2.353452,-0.9861786,0.51967895,-0.53790885,-0.7916846,-2.2023234,1.3510252,-1.657869,-0.43165717,0.25044906,-1.2159458,1.9264735,0.06737191,-0.46945345,0.034054656
1.7729347,-3.770133E-4,0.17001294,0.35014424,-0.029236572,0.8121275,0.3700773,-1.5150625,-0.9055378,0.9238949,-0.48179087,0.8959773,0.48538798,0.18224494,1.9399881,1.5786077,-0.42714408,0.5122047,-1.621848,-0.13133128,-0.46796978,1.6820501,-0.89356035,0.51240355,-0.09035214,-0.7101941,1.3149979,0.10694304,0.6263879,-1.0286865
-1.4753191,-0.39762273,-1.2092166,-2.5051763,0.24726748,1.8743881,-0.0029195035,0.034344237,0.07963575,1.4072235,0.6567507,1.3605479E-4,1.390095,-0.18809076,1.3274528,-0.38052243,1.9432297,0.1007888,0.99089205,-0.39878902,0.99192405,-0.43155664,0.4559626,1.1448818,0.13695143,-1.4287004,1.2465233,1.2973505,-1.5913972,1.7300093
-1.1372383,1.6553557,0.13325211,-0.9545791,-1.0504051,1.0354369,-0.48647508,2.7808003,0.812248,0.6385392,1.8519272,1.0680426,0.3055762,1.410961,-1.057109,0.9679897,-0.3452941,-0.96970487,-0.7826934,-0.46452948,-0.13871178,0.13683867,0.3522715,-0.7826384,0.036038693,-1.6052945,0.0016651104,-0.13861099,0.4204538,-0.3171742
0.322168,-0.90311104,0.6835215,-0.39179292,-0.99004614,-0.09263999,-0.84443754,-0.5801018,1.1112834,0.28478044,0.43818885,-0.46862647,0.11210481,-0.17577703,-0.0467328,-1.522506,-1.7649715,-1.2368973,0.4140898,0.6297565,0.7379761,1.135343,0.504999,0.1911251,-0.20301826,0.41046563,0.4220671,-0.115566425,-0.5950404,0.12247706
0.51296437,-0.7230183,0.69869363,-0.31331217,-0.3041291,-0.6400089,0.6371686,1.3492204,0.518636,0.7374867,0.15075113,1.1758392,0.53600436,-1.3897643,0.53742844,-0.36535764,-1.8260131,-1.6931529,-0.008965116,-1.8542067,0.62431794,0.4950437,1.8719968,-1.022692,-0.027912563,0.16635549,0.39736828,0.40338594,-1.7510322,0.46398166
-0.6518225,-0.82567835,-0.43166727,1.7096611,0.31247395,-0.87085956,0.39529112,-0.92902666,0.8717424,-0.78604716,0.7755168,-0.92822486,0.87031287,1.771438,-0.15380199,-0.5882883,-0.08413285,-0.11945494,-1.3282917,-0.40262255,0.15243487,-0.53992254,-0.16772455,-0.2565942,0.8996905,1.0309718,0.12030206,0.8435198,-0.61242104,0.7542477
1.4194475,-1.1290854,-0.90898824,0.14624283,-0.4959917,-1.0353036,0.509751,-0.46098447,0.08142345,-0.1628098,-1.1090491,0.8965356,-1.7869971,1.0107852,0.013489735,0.6613157,0.807668,0.3954856,1.5808127,0.30407146,0.505259,0.08668425,-1.349112,-0.8629395,2.1844864,0.3909352,-0.40151942,0.6951167,-0.1448407,0.19126351
-0.7994407,0.8659116,-1.7628644,0.5333593,0.60202456,-0.66126394,2.0688682,0.92078185,-2.9775302,1.5392567,-2.128314,0.20227426,-0.3315712,1.7386886,-0.8216657,-0.0050069285,-1.4419822,-0.56143624,0.6661185,0.49944976,0.27426696,0.9509721,-0.06993176,-1.7627398,1.3451632,-0.86424255,-0.15942211,2.9242156,-1.8064804,-1.3263482
1.6859399,1.4415506,0.11989014,1.2726831,2.4005303,-0.34788358,-0.7236402,0.8572896,-2.5186408,2.95911,1.0900729,-1.7339915,0.6199229,-1.21923,-0.77617234,0.09433551,0.54305077,-0.19738182,1.0191941,0.3375255,0.6459367,-1.1031528,0.26702985,-2.3611348,2.871436,-1.4333066,-1.0177492,0.52039284,-0.7398595,-0.05076347
-1.1867474,0.7175983,-0.5936508,0.6608179,0.5384606,0.099120684,-2.2810662,-1.2086444,-1.1889542,1.6984049,0.5751505,-1.6689699,-0.7694729,-0.39970413,1.0507026,0.8008453,0.8046637,-0.39049634,-0.24347498,-0.19328302,0.035093315,-0.29250512,-2.14737,0.8073045,1.044892,1.0776422,-2.6516764,2.8601346,-1.3025057,-0.5030141
-0.19691628,-2.21111,-1.3333997,3.0337663,-0.25200027,-0.34874943,0.20716304,-0.18230613,-3.1789007,1.9819001,1.7843087,-3.7153003,-0.113029286,0.52317345,-0.58965933,1.8199683,0.25816962,0.6201101,-0.49630418,-0.4806023,-0.12066352,0.73191005,-0.98257136,-0.13588631,0.9809127,0.44523904,-0.8218159,-0.07355701,-0.30266267,-0.90346575
1.3618305,0.5436559,0.34544516,1.6520557,0.56547874,0.42649254,-0.21744035,1.8974011,-0.5949209,0.87139845,-0.4155291,-1.1417246,0.23902732,-0.1901494,-1.6859235,0.3576287,-3.4512555E-5,-0.61065876,1.7806411,-0.18856451,1.3754717,-0.38723648,0.14881271,-2.682228,1.2701238,0.7682373,-1.8850095,1.8147464,0.076061316,-0.479403
-0.41206717,1.4127871,0.39436644,2.1634252,0.5393767,-0.036902953,0.26186088,0.426139,-2.7501283,0.29331106,0.5057439,-1.1457717,1.0201285,-0.3721197,0.1187321,1.6567295,-0.37533608,0.55971307,-0.12193477,-1.0818689,-0.65254855,0.79667705,0.5065229,-0.90205,-0.41861323,0.20585364,-0.7135442,2.227924,-0.7602997,-1.3867779
1.0592577,3.349238,-0.18546844,1.9255717,-1.112968,-0.78042424,0.01571025,-0.20938867,-2.472634,2.1862347,-0.16505758,-1.3692731,-1.1265461,0.2432124,-1.3771912,1.6549853,0.8417116,2.2577114,0.60239255,1.5072231,-0.5681928,-3.0478556,-1.5417666,-0.63901794,1.7247117,0.1265773,-2.0085356,-1.0600187,1.6816267,-1.0174812
-0.0351561,0.32837674,2.2363336,3.125745,-1.2375549,-0.24730845,-0.44235376,1.8170741,-0.97814226,0.46725312,-0.08646454,-3.6965857,0.008343618,0.7616589,0.97261125,0.42567328,0.21547593,-0.57682085,1.6161786,0.7213575,1.5237131,-1.7552193,-1.1281855,-0.3714559,0.5592346,-1.940999,-0.40830216,0.07607948,0.41824737,-1.367112
0.98811495,0.01377672,-0.04113928,2.9749298,0.97783744,0.6646993,-0.67266566,0.8299119,-3.1571987,1.1732523,-0.19221254,-0.46902704,-1.5645819,1.0020186,-1.5910889,-0.9437549,0.4871469,0.43195343,0.77663046,-1.0635635,-0.088583656,0.05411595,-0.96766627,-0.8867819,0.44650733,-1.0836645,0.086832054,-0.4595698,0.5098011,-0.26796725
-0.788807,1.376964,0.05353401,0.434648,-0.34911427,0.18890627,-0.38371283,-0.8525285,-2.030178,0.75795436,-1.2572358,-1.5584441,1.6959985,-0.11034385,0.5739315,-0.8641959,0.5229465,-1.0928012,-0.14794901,-0.98856837,-0.06913639,-1.0320458,0.43740645,-0.037878297,0.36142623,-0.81896025,-0.5718064,-1.7303568,-0.19428621,-2.4793022
0.044120684,0.68448853,-1.0049938,3.2536943,-1.4529957,0.92425686,0.3071548,-1.3031123,-0.22852218,-0.040107317,0.24611436,0.4284847,2.7192554,-1.4423863,-0.40339062,0.9896352,1.2394392,0.028951565,0.12160859,-0.99474865,-0.6873294,-0.2884975,0.12118046,-0.7326666,0.114624165,0.05436384,0.46940365,-1.2584507,0.43081164,-0.22822008
-1.5399325,0.3981394,0.8526835,-0.057970747,-0.10724215,1.3249145,-0.55415475,-0.96481407,-1.5306541,-1.3413516,-0.6884062,1.5114473,0.8439755,-0.7524384,-0.11043429,-0.97299814,0.8871697,-2.0311024,-0.30845407,-0.9901312,0.44542527,0.23962721,-0.7801733,-2.857962,1.2899704,-0.36137667,-2.2504375,-0.20668535,1.3916703,-1.3058687
-0.2520778,0.5291881,0.22753973,0.534468,-0.8740811,0.034960136,-0.99980956,0.76581293,-0.8938711,-1.0636543,0.37335232,1.7834821,0.9222636,0.6627397,0.16921459,-0.4979856,0.8206296,-0.2996054,-0.46443638,-0.038014833,-0.99430174,-0.29931733,1.8103632,-0.6972427,1.0129735,-0.8004543,-0.73547375,-1.5518557,1.617614,-1.2830173
-0.6963909,-0.38066348,0.63890684,0.43279245,-0.2113895,-0.02049408,1.7736603,0.974925,0.3048348,-0.085351646,-0.9104902,2.790024,2.3174548,1.8760004,1.5595055,-0.22358951,1.382422,-0.5819152,0.16039161,-0.8818108,-0.8427805,1.582358,0.8279175,-2.0768774,1.9289037,0.5218332,1.6708817,-1.6065278,1.3014598,-3.9854472
0.735162,-1.4384048,0.8767273,-0.14960618,-0.45387384,-0.54120624,0.26610884,-0.41857523,1.7634172,-0.11181841,-0.37823728,1.5909374,1.1078653,0.24586794,0.16095902,-0.34281138,1.9877653,1.5300106,-0.31387284,1.2157832,2.1554077,-0.6520212,-1.7759725,-3.496946,1.3175662,1.2168522,0.3427731,-1.4678934,-1.036126,-0.48067397
-1.081614,-0.14621162,-1.0911297,0.3874797,1.2172384,-0.6146731,-0.13883044,0.6090139,0.30775955,-1.7088996,-1.0639149,-0.17138913,2.176135,0.81291217,2.0618691,0.2446453,1.522137,-1.4660693,0.54095286,-1.434134,-0.2980154,0.4637704,0.17621617,-0.8877266,1.731619,-0.5545833,2.9388368,-0.29791772,1.2507902,-2.0331314
-1.3871889,-0.26848683,1.001107,-0.49734864,0.7498635,1.1528815,0.74459374,0.18371195,-1.267665,-0.27168572,0.18190154,1.5383127,-0.1966267,-1.5521234,0.49393663,-0.19075738,3.595603,0.3238822,0.62831974,-0.6606715,-0.98059297,0.113593,0.037676334,-0.17061006,2.2840889,0.22490983,-0.61472976,-0.35304728,3.1916964,-0.38757965
1.2542287,0.3826006,0.25643128,0.19609793,-1.487102,0.07807684,0.32856357,0.7398104,-0.9731424,0.42050877,-0.011699669,1.4006848,0.46987814,-1.3623644,1.1608487,0.21532394,-0.04883868,-1.1044456,1.2538003,-0.8405381,-0.31721187,-0.7654659,-1.4505315,-0.19951832,-1.347015,0.028961372,0.025895184,-0.94001645,0.43084174,1.0756183
-0.31229755,-0.3990647,-1.5634332,0.23775983,-2.1230028,-0.8057212,1.1181602,0.8860455,-1.8715556,-0.05148709,0.4779352,-0.33277968,-1.1484699,-0.8025339,-2.0112247,0.5641823,-1.1989169,0.20917037,-0.5182648,-0.41928363,1.8053238,0.46771,-0.37437674,-0.32442424,0.17012756,-0.400681,-1.0902108,1.890851,0.92951715,0.48574007
1.1879432,0.643393,-0.043863453,-1.6214433,0.20408776,-0.32401165,-0.94926745,-0.41699618,-0.19985943,-0.53871053,0.57150066,-0.59734386,-0.64986,-0.27463847,0.3407486,0.76877713,-0.7052831,-2.5075696,0.3438331,-1.1729074,1.1270372,-0.7707844,-2.112579,1.2538427,2.0471668,-1.4551429,-0.45160583,0.9503008,0.6923689,-0.17645521
-1.4708891,-0.31833413,0.18382367,-0.51200116,-0.80580413,-1.3994166,1.2831056,-0.6705797,-0.80865234,-0.76330477,-1.3936512,-0.53464156,0.9472876,-0.7013419,0.52585894,0.30830848,-0.43365163,-0.09379554,0.97574335,0.32942662,-0.3087522,1.0242444,-1.4342378,1.4813676,1.6967849,0.021740958,-1.0157043,0.5358724,0.45417616,0.9465518
0.41088074,1.3159086,-0.7134981,-1.3350542,0.006407856,-1.0206347,2.1134377,1.1261196,0.35203248,-0.9689588,-0.63767403,1.1775987,-0.4399998,0.97803354,-0.849109,1.1607883,0.93383265,0.18958358,-0.48201677,-0.9177373,-1.2945796,0.4246414,0.7785718,0.85098994,-0.35241538,0.4799963,0.18526001,1.1214865,0.47970608,-2.119618
0.90994984,-0.13326831,0.19655888,0.34562358,-1.5924428,0.1048245,-1.0026938,-0.10020423,0.95469785,-0.7203492,0.7705874,1.5055089,-2.076648,-0.16418947,0.80243933,-0.52096397,-0.09003465,2.3182693,-0.14770652,0.7099439,-1.0636078,1.437699,0.40582627,-0.05537409,0.799889,0.8814955,0.13187286,-0.722895,-0.24728122,-0.36600852
0.5471,0.41379195,-1.7601253,-0.7899514,-1.212281,1.4138944,0.42126685,-0.8282627,0.15143536,-0.18608929,0.33214256,0.77933025,0.33217645,-0.430909,1.0975032,-0.75143594,-0.7042122,0.24409357,0.14254694,0.6464629,0.9623386,-0.8238916,-1.0923496,-1.3876027,1.6405113,0.5560991,0.34437346,-1.0194416,1.5806342,0.23016262
-0.24760003,-0.98910946,0.2804825,1.0911938,0.21412762,-0.4278335,-0.28548414,-0.6309968,-0.84021586,-0.4498905,2.0546257,0.4792161,-0.21359587,0.49683568,-1.2860518,-0.30631927,-1.179634,-0.95702493,0.2493784,-1.4701849,1.1632859,-0.47281113,0.39261207,-0.62577546,-1.5337611,-0.18115814,-0.8535118,-1.2391,0.5363518,0.68360376
1.1185948,0.19779378,0.46914378,1.7786659,-0.94622713,-0.5358436,1.1586258,1.0320851,0.39058244,-0.37750572,-0.94723934,0.3630187,-0.12424678,0.95964366,0.29434025,1.323382,-1.5294633,-0.011849035,-1.115278,-1.1781614,-0.57429355,0.24656096,0.4147923,-0.45698783,-0.19605781,-0.11748103,-0.30966038,1.7944732,-0.78432405,0.105049446
0.3268099,-0.34583515,1.1079152,1.0316198,-0.7964361,-0.16955411,-1.4875262,-0.6265038,-1.118344,-0.24459967,-0.051682223,-0.85520697,0.71993357,0.82207537,0.15348579,-0.24190323,-0.24985693,0.810308,0.8275751,0.42978367,0.8539052,1.9879875,0.5255436,1.1690712,1.4192504,0.30775633,-0.3259515,1.4182367,-1.5649285,1.2637063
0.31611297,0.72438926,-0.98578244,1.7671094,-0.5384286,-0.51236844,0.093796335,1.4980644,0.55182356,-0.973679,-0.22012492,-0.54993826,-0.17850414,1.8032675,-0.5965286,0.53183675,-2.564981,0.36582965,2.3321285,0.14025009,-0.519105,1.7450552,0.61296225,-0.4363345,0.44342506,0.86084753,-0.23083892,1.5067242,0.11672618,-1.082973
-1.5356468,-1.4864149,-1.1244996,-0.8788344,-1.4066703,0.15667024,-0.3301193,0.60382575,0.11909915,-1.1744627,-1.6020027,-2.7554214,0.069540635,-0.25204358,-0.6139401,-0.41204122,1.0978762,-0.5917937,-0.05708242,0.118248634,-0.6237372,0.09550872,-0.6173198,0.41665238,0.90478265,-0.32907933,-1.3342891,1.2113013,-1.4066064,1.0247601
-0.42517918,0.12300972,-1.0686321,1.1339966,1.4416515,0.025381519,-0.93634826,0.81219137,0.3340434,0.85766846,-0.23270848,0.36276275,2.8969233,0.9545353,1.1775606,0.39631274,1.3082184,-0.17781119,0.29427493,0.4899092,-0.7428441,-0.012764746,-1.7725427,-2.959196,1.1542706,-0.26185423,-1.6785855,0.32854423,2.299774,-1.4424407
0.7558547,1.4254491,-2.0132656,0.6953322,-1.1281685,-0.06850449,-0.61505866,0.48014924,-1.154828,1.7597411,1.7842078,0.21214311,-0.14483167,0.078835,-1.691238,0.33954,0.7589886,-0.6202124,0.39451787,0.73554707,1.9269823,-0.28735647,-0.050965823,-3.2513356,0.0666814,0.7300679,-1.7539222,2.108773,-0.6215593,-1.5520477
-0.8929299,-0.020334588,-1.4748417,-0.91427636,0.18503654,-0.30680415,0.48474285,-1.8545474,-0.007104805,-2.0786994,1.3922716,-1.9137399,-1.1877813,-0.101528205,-0.18500185,2.3801296,0.8690603,2.0995402,1.0695678,-0.8011458,-1.2698917,0.9683553,-1.0156102,-1.5575052,-0.013862613,0.44946447,-2.8723302,-1.1737298,0.16075239,-0.72839165
0.18387644,0.54848784,-0.75604576,-0.85028887,0.47781855,-0.820192,-0.25294784,0.88366264,-1.0871565,0.10428109,-3.132129,-0.5743162,-0.42409852,-0.050136533,0.16212164,2.0506017,-1.2065578,-0.029638747,-1.0157366,1.2313191,0.17472117,0.843169,-1.0505676,-0.80856216,0.2634486,1.1943306,-1.080268,1.2673122,1.2406592,0.5362327
1.5328364,-0.18571748,0.032031238,0.36617935,0.2985417,-0.61735773,-1.1557342,0.18920814,-1.8194797,-1.0883831,-0.01673308,-1.672826,-0.7126137,-0.20076747,0.06433767,1.6128552,-0.01340528,1.1032252,-0.9283588,0.44879884,-0.65341914,-1.8970823,-0.5664043,2.8656688,-0.29172477,-0.33921942,-0.30159447,-0.6101091,-1.7251866,-1.3341628
-0.81784385,-0.56336254,0.18763673,-0.76438206,-1.2012911,-0.2489829,1.2954181,1.0081927,0.0066366186,-0.29051533,-0.81314933,1.4975642,-1.7481505,-1.5626135,-0.40740028,1.0839505,-0.14860922,0.76530147,0.7325668,1.4100986,0.79866165,-1.6014652,-1.194278,-0.57772446,-0.48849767,-0.89907676,-0.63631254,0.47336194,-0.20046203,-0.41096544
0.9654209,-0.12614883,0.9570821,-0.44703606,-1.0265231,-0.35620987,-0.21288699,-2.0688937,-0.58904797,-0.28791454,-0.97593397,0.19453289,-0.8271653,0.5102051,0.53313655,1.1718404,0.8710159,0.49530724,-0.54141295,0.051332265,0.26708853,-1.8558239,-1.243315,-1.2812815,1.2115685,0.03692209,-0.22831692,1.8987331,-1.5043378,-0.2717367
-2.0309317,1.6353476,0.1201082,-0.7422781,-1.1102382,-0.06767183,-0.9985532,0.24165362,-1.3058985,0.19384564,-0.6825499,0.4280686,-1.1974252,-0.84570396,1.2984551,0.2912827,0.5497639,0.27834022,0.44393086,-1.1776019,-0.18594064,-0.043645613,-1.4781212,-1.1117865,-1.6537666,-2.1731467,-1.7392946,-1.3378258,0.3161974,-3.2252712
0.93199706,-1.0359616,0.82922393,2.3663998,-1.7073431,-0.050862487,-0.15811965,0.43190345,-0.6620565,0.24206547,0.8300655,0.27322403,-3.4665172,-0.52704585,0.5138762,1.0448946,2.4761937,1.7722628,-1.5670834,1.1822724,-0.70506346,-0.061658897,-1.3744017,-1.3386992,-1.3305053,-0.22325072,-0.47146216,0.26590848,-0.85639304,-0.593211
-0.45842293,0.5094802,0.33636823,-0.05783577,-0.44795904,-0.03589886,-1.0226656,1.2486126,-0.95095915,-2.3948536,-1.2537364,-1.2109461,-0.3235285,-0.5465704,0.384844,1.0313045,0.3964934,0.99493307,0.16904208,-2.1749244,2.3737035,0.81096107,-0.3477581,1.2436855,0.6208369,-1.4040648,-1.5041581,-1.2961985,-0.8661365,-1.7868577
1.7240515,-0.01694082,-0.04291245,0.7892426,0.114228345,-0.21715817,1.6337688,0.72857165,-1.1109823,-2.0840766,1.0026305,2.2961726,-0.26860315,0.43893436,-0.099791676,-0.64163244,0.5631566,0.37168372,0.06002891,1.2198645,1.1476022,1.2001688,-1.4815192,-0.25450447,0.6341667,0.02060609,-1.0368655,-1.7549926,-0.4467692,-1.8973354
0.33613077,2.1031015,-0.10464059,-0.9932757,0.19145675,0.21974549,0.14911126,0.6424551,-0.9442423,-0.8471824,1.236812,1.0869437,-2.4053884,-1.3226237,1.2386745,2.2483325,1.2244985,-0.19484775,0.3052232,0.6478397,-0.53559494,0.9989158,-0.6010434,-0.87005097,0.78042006,1.3740462,-0.26664352,-1.2392517,0.5322586,-0.80650705
1.301865,2.0458424,0.519065,-0.91303664,-0.10154638,-0.35760108,-1.5712248,-0.63184434,-0.20941597,-0.49787465,-0.32875082,0.7029895,0.27610192,-1.0097495,2.4282496,-1.0939063,-1.0561289,1.175018,-0.7810607,0.95341027,0.6656341,0.24047595,0.53925246,1.2799581,-0.55967265,-1.1133077,1.180498,-2.8333626,0.9482329,-1.5913134
2.6723297,-0.7948096,1.7040017,-1.0111821,-1.2873178,-0.1113987,0.014466315,2.1705837,-1.2130351,-2.521905,0.5252651,0.90976566,-0.15651643,-1.3353187,1.170391,0.7794609,1.4211532,0.7100294,2.0960517,1.6365201,-1.558454,-0.95442617,0.49725097,-2.3429923,-0.47581306,-0.75590384,0.5305114,-0.73754036,2.03504,0.45079228
0.79953593,0.23586726,0.55201703,-0.60168,-0.4242489,0.32125935,-0.24818695,-1.6189196,1.1206515,-0.5963915,0.09684321,3.2253501,-0.028331857,0.8219115,1.2767117,-0.70479596,0.08837056,0.8754368,-0.17270489,-0.080470994,-1.7194002,0.652427,-0.0319259,-1.1171178,-2.5453203,1.4420501,0.99756026,-0.88367474,-1.7931176,0.18594842
0.6539552,-2.9368231,1.8840909,-0.22587045,-0.54231954,-0.83806306,1.5248055,-1.0935183,0.7930776,0.28683928,1.1238377,-0.14304037,-0.13843611,0.10158715,1.0720522,0.65642905,2.4318924,0.4192598,-0.1430842,1.8293769,-0.16730131,0.8033135,-0.3033185,-1.2643992,-0.7859993,-0.008985431,2.377173,1.7627693,0.73179036,1.6059211
0.4986455,-0.23174486,-0.448336,-0.19955124,-0.8604005,-0.46774966,-0.22017682,2.1873937,0.025726994,-0.90259254,-0.46580657,0.77402306,1.2647046,-0.85174865,-0.57347924,-0.38546753,-0.6399625,0.8045421,-0.12061081,1.0729196,-0.28351134,-0.15112136,-1.5445182,1.0081823,0.5340471,-0.040119484,0.062553905,-1.5654229,-0.6374666,2.0414007
-0.23241179,0.39510977,-1.0439134,0.95856094,0.5654252,-1.1299281,0.15387957,-0.45730948,-0.22317757,-0.080171034,0.75545824,0.7084631,0.43753117,-0.6986232,-0.6198229,2.7459826,-0.14014591,-0.40998122,1.7019541,2.315164,0.65240496,0.04026998,-1.12871,0.37696615,0.051536415,2.4854715,0.8902883,-0.5513115,-1.2549233,-1.0568391
0.42859676,0.27946213,-0.029820524,0.70371884,-0.008356304,-0.8605443,-0.25075936,-0.4389353,-1.7486423,-0.04586747,-1.2889553,0.2048909,0.58604664,-0.48155442,0.07669872,0.6483141,0.9756035,-0.42943597,0.6515389,-0.10476796,-0.17037375,-0.44726333,-0.34666923,-0.21951641,0.29604006,-1.1261077,-1.215398,-1.8812026,-0.64686364,1.3426899
-0.9483651,0.31966898,-1.4959682,0.8642359,0.55616975,-1.0727692,-0.32498464,0.8209004,0.4607344,1.2334251,0.11209368,-0.31980595,-1.8286005,-0.66682166,0.08890426,2.3652713,0.23211198,0.62518376,-0.79599845,1.2794439,1.9497442,-0.12647727,0.20315129,-0.8612305,-1.5416734,-0.3120105,-1.2977903,0.5440352,-1.7984024,0.9119924
1.1806757,1.5529584,-1.8016723,-1.4836588,-0.8414132,0.6237273,0.07367821,0.026410168,-1.2090731,-0.4635155,0.47007307,-0.5398518,-0.097705916,0.10414028,-0.7808521,0.40120623,-0.82458556,-1.3268665,0.6824534,-1.5067352,-0.054882675,-0.070741534,1.365056,-0.2259048,-0.7593643,0.8899528,-0.08614209,-0.1135222,0.38351095,-0.20249501
-3.5096714,0.04824366,0.28898102,0.3450334,-1.7006036,1.5830976,1.3155873,0.26474586,-0.02838097,-0.3974648,0.95444363,-0.69869614,0.13986632,1.3978492,-1.0467286,-0.6362166,1.762892,-0.49038282,-0.051296614,-0.023936538,0.48369148,1.0213054,0.008329293,0.45061174,0.4872402,-0.6676718,0.3764009,-1.9550545,1.2194936,1.1864257
0.31811246,0.12573044,0.41724962,-0.9932624,0.108120695,0.8021656,-2.4532611,0.5896876,-0.095466256,-0.7347877,-1.0350358,0.19180433,-1.4178836,-1.4491106,0.5527737,-1.2688396,-0.3464601,0.3605807,-0.73190135,0.40962318,-0.084856845,-1.6257668,-0.672964,0.67418855,2.0204623,-0.5960508,-0.30343744,2.563184,0.041390326,-0.25284708
2.306421,0.94607896,-0.6467258,0.36508924,-0.6268402,0.21573578,-0.5484948,0.8913805,-0.542181,3.310426,0.3767384,-0.11392596,-1.1109531,2.1291175,-0.15743485,1.1888971,0.6102881,-1.1567757,-0.19623573,-1.3643644,-0.3455674,0.7321268,0.4685656,0.6006465,0.4799509,-0.546614,-1.5881463,2.3510525,0.6296721,1.1797422
-1.0850154,0.17094535,1.6202487,1.5812423,0.1988908,0.003972533,-0.14663228,2.5716765,-0.39408624,-0.9886602,-0.5766979,0.44023237,1.2277758,-1.0394068,1.230815,0.8226895,0.17859115,-0.43662527,-0.52594525,-1.1109644,-2.0201957,0.6749732,0.16749054,-0.4831199,-0.29678273,0.51821357,-1.6477181,0.95555425,8.506652E-4,0.07137311
-0.026872166,1.020537,2.269075,0.682833,-1.4700003,0.51612586,-0.8273736,1.659956,0.58105576,1.2978325,0.0053905463,0.54802054,0.13067207,0.6109036,0.02537547,-0.39463526,-1.0347487,-0.33092093,1.1925822,1.7135676,-0.26795852,0.9245822,0.7076663,1.6277038,0.6215335,0.113416374,0.054237872,1.2705066,0.29939964,-1.1432791
0.7663367,0.91206074,1.0848951,1.017363,1.1577767,0.18110579,-0.04922301,2.0483692,-0.08077657,-0.76899546,-0.3345545,0.40065143,3.9465337,-0.10188253,1.0530378,0.4311296,-0.5194157,-0.9294405,0.13530537,-0.23198633,-0.015748125,1.6913055,0.023155894,1.544295,-2.8991086,-0.38966626,-0.35109714,1.1513742,0.81913847,0.21588601
0.21929416,1.1178705,-1.5262953,1.2351124,-0.5247843,0.75782233,0.26974908,1.1804377,1.3242836,-0.92362875,0.77875775,-1.3440591,0.36160624,-0.63035315,-0.5895106,0.7068254,0.9684387,0.91943765,0.1935751,-0.89776266,-0.31483153,2.0002139,0.79270214,0.6633393,0.9375481,-0.7531952,-2.0521545,-0.28042424,1.4643579,0.6809168
1.4543055,0.2704779,-0.5098967,1.204482,-0.24949478,-0.27525076,-1.533611,0.80869776,0.6159945,-1.6390393,0.7617145,-1.6561828,0.8798827,-1.3739147,-1.053154,-0.9565198,-1.6675135,-1.2036235,-1.5535527,-0.5497983,-1.064751,1.22938,-0.99896836,-0.82160926,0.5974803,-0.45876208,-1.4827639,1.373293,1.728626,-1.1079806
-0.33460987,-0.098465376,-0.52997535,0.70306563,-0.55741906,0.75287515,-1.3407217,-0.13041772,1.1530439,0.49604732,0.0028948437,0.30875623,-0.7530307,-0.16545345,0.017590577,1.809894,0.22882578,-1.1173494,-0.44116014,1.0284141,0.14873302,-1.1972873,-2.9631479,0.11860569,0.92902535,-0.42284456,-0.46751538,1.0976163,1.0436964,0.37954596
-0.012337404,2.1489937,-0.67695075,-0.85994285,1.675265,-0.09034165,0.07135755,-0.9584158,0.25731218,-0.1921165,0.97655165,0.19437867,-0.84136814,-0.76681715,-0.0031951312,0.41830057,-1.0631322,-3.1970935,1.034981,1.2478395,-1.4010359,-0.6490752,-1.3232288,0.90556204,2.0946863,-0.77459526,-0.13331737,1.7050183,0.3667049,0.5421184
2.100257,2.1370177,0.29935077,-0.086431965,-0.26834738,0.18481404,-0.27788362,-0.64030766,0.37065825,1.2138827,-0.894093,-0.85740834,-0.35098755,-0.75182533,0.5447912,2.3530145,0.122003555,0.82081366,0.83691496,0.59367687,-2.4442356,-0.38865474,-2.5784953,1.055002,3.0852675,-1.4906434,-1.9663509,0.8792738,-0.77569497,0.19367935
-2.0254107,0.24650829,-2.2190568,0.3815202,0.3629368,0.1528955,0.1802923,-0.4438521,-0.5901483,-1.2398881,-0.1308283,-2.4771926,-0.044929992,1.0949177,-0.35769707,0.9739152,0.15556285,-0.69786066,-1.0700078,-1.3770986,-0.67557627,-2.5190756,0.3970166,-0.02806308,0.7146309,-0.48557773,-1.2363615,0.89310044,-1.4513133,-0.5897252
0.3961884,0.9017195,0.18251283,-0.43050236,-1.8055224,0.29891983,0.59325045,-1.4018708,0.4626889,-0.8462146,-0.71231884,-2.2515213,-0.04574868,1.4598668,-0.43898797,1.0161338,-0.57103735,0.35607392,0.36823696,0.82815766,-1.7525607,-2.108542,-0.20286404,-0.4697971,0.36241484,-0.8073546,-1.1377668,0.52563787,1.3058974,-2.1822045
-0.45312348,0.9804074,1.3343307,0.27527946,-0.8086913,0.38622513,0.70633847,0.12033282,-0.48194802,0.28505328,1.1634462,-2.047359,0.08869593,-0.531343,-0.4565405,0.06986982,1.4270334,-0.90717673,-0.7347538,1.718587,-0.67892903,-3.9529204,0.26686245,-2.207699,2.1149352,-0.729596,-0.20590964,-0.84317017,0.5478268,-0.24873006
-0.3522855,-0.99218285,0.059297286,-0.9189579,-0.80989534,0.79035145,-1.9536848,1.6592112,-0.39937228,-0.0360784,2.3758264,-2.2970386,0.56252116,-0.003682479,0.45311007,-0.12180917,0.52933776,-0.48699465,-0.6484973,-0.40545937,-1.0467541,-2.2073748,-0.39224795,-0.8943634,1.4153552,2.5633402,-1.1222597,0.64555556,0.9979074,-0.9711479
-0.4632702,0.29946467,2.57141,0.16369183,-1.0126555,-0.8247112,0.19609147,1.5265093,-0.26241484,-0.95960224,0.8658809,-1.4584057,0.0572644,1.5506475,-1.3912973,-0.5967285,1.5451869,-1.9400996,0.9148573,1.3141996,-0.665696,-1.864815,-1.2592574,-1.016497,2.0549946,-1.6136743,-0.25970253,-0.11914013,-1.9879006,-1.9523305
-0.8852814,-0.15663318,-0.89525265,-1.8545622,-1.5979736,-0.25745314,-0.15481693,0.6895585,-0.16674706,-2.9990518,0.29481894,-1.5536562,-1.6408266,1.8023989,0.4251574,-0.80779004,0.35504842,-0.6939184,0.31278378,-0.21777329,-0.32529858,-0.07466489,0.35266578,1.5026625,1.5629482,0.5754584,-0.6525216,1.0864606,0.04796466,0.31383947
0.33449,2.6997285,-0.015833167,1.0810411,0.14910543,1.0129049,-0.08941027,0.30079225,0.42324919,-1.6191264,1.9988582,0.007784904,-1.9933351,-1.0865492,0.62037283,0.81658596,2.7797737,0.21232939,-0.6494393,1.102397,-0.77557665,1.9870669,0.1729793,0.8389306,2.3503506,-0.85814327,0.6604543,-1.7485443,0.7522689,-0.55721414
-0.9381567,-0.3990514,1.9589697,0.5070621,-0.3959642,0.75412065,-0.48680753,1.2547112,-1.0025475,-0.9859366,0.54894084,-2.9352274,-1.7016606,0.57455236,0.42713445,-0.7954421,0.1962183,-0.08849374,-1.3283416,-0.7034286,0.007879605,-0.7123516,-1.4307191,-0.67155415,-1.5863158,0.45011234,1.1500654,-1.5010936,0.3507526,0.0037232114
-0.27564478,1.010231,0.4507987,0.77806807,-1.1435994,-0.091910616,2.9078355,-0.028156923,-0.30765375,-0.52376896,-0.57196546,0.028782498,-0.4738605,-0.12733984,-1.4419601,-1.5567516,2.9323883,-1.1625136,0.075796984,-0.18541528,-0.4879101,-0.3794758,-1.2219905,1.0081271,-0.69946104,1.9249551,1.4163837,-1.5240196,-0.048798032,1.4394249
-0.23766261,-0.4485186,-1.6372252,0.47213832,0.57461095,-0.51969033,1.1605039,-0.86420864,0.27714995,-1.777126,1.5332031,1.012052,-1.521174,-1.9065719,0.050289914,-1.3016527,3.109969,0.2734239,-0.77432555,-0.17262535,0.48331198,1.6105763,-0.7514141,2.4515076,-2.1711469,-0.45030993,0.90653867,-1.3072497,-0.71398586,0.11515472
0.7858874,-0.45586652,0.9168607,-1.8751079,-0.9492417,0.381183,-0.7770644,-0.49673945,-1.1573972,-2.1596782,-0.37785998,3.7665346,-0.9141255,-0.09479026,-0.7270222,-0.2590507,3.0496902,0.1733405,0.21144512,0.5707144,-0.4336226,3.1042342,0.5685346,-0.718788,-1.957584,0.73244226,0.53752595,-2.3916643,1.7333034,0.3882033
-0.7639147,-1.1631789,-0.3637285,-0.38758674,0.327233,-0.71701723,0.58198595,-0.09484357,-0.6002758,-0.17875634,-0.63391817,-0.7814929,-0.16262923,0.5393524,1.7575419,0.61590785,-0.37698352,1.7676353,1.5984311,-1.2361907,-1.4513811,-0.2215531,0.119583614,1.3925067,-0.81721985,-0.787196,-0.30223054,-0.7849894,-0.29423976,0.50428265
2.5309572,-0.21643858,1.1496027,-0.45157665,-0.046463165,-0.10415935,0.31480792,-0.045327887,0.79965764,1.6514409,0.99519867,0.90794724,-2.4425886,-1.2689677,0.52163637,0.4483923,0.6345858,-0.47711793,-0.16488013,0.19406073,-1.7426279,-0.0733769,-0.6840303,-0.45524877,0.8079526,0.047008175,-0.60322744,-0.592592,0.24263498,-0.87105584
1.2338245,0.018911134,-1.2606714,0.2737019,0.7625449,0.050059807,-0.3358627,-0.32840002,-0.32795966,-0.08931254,0.9501249,1.0599339,-1.4832394,-0.3396725,1.616167,-0.10603169,-0.8831613,0.36640462,0.05573955,-1.3331269,0.1344373,-1.42151,1.6436999,0.911208,-0.811259,1.8649781,-0.95589405,0.8822799,0.02373662,1.6507019
-0.18994446,-0.6017914,0.58954304,0.18434669,-0.57262117,-2.3167608,1.4421779,-0.8477855,-1.0829284,-0.88595563,-1.7540985,0.64608943,-0.029442023,0.8529065,1.2796818,1.3571616,1.8755311,-0.51788825,-0.7417503,0.22845708,-0.0051836236,-0.6099332,0.35407975,-0.7948708,-1.0999862,-0.6649099,2.0190294,0.39321196,1.0600529,-0.518292
-0.774231,0.57890004,0.21974157,0.8871737,1.231301,0.13941862,-0.9777344,-0.39759353,2.3516808,-0.13777879,0.9329587,-0.013035309,-0.33634993,0.663884,0.3416033,-0.9602164,-0.44540137,1.55431,-1.0171916,-1.7371985,-1.4891868,-1.1464436,0.43612108,-3.1319783,1.3317013,-1.1415461,-0.14548086,-1.0109994,-0.4770511,0.0955176
0.09936322,0.26562935,-0.2953198,0.22987759,-2.2506983,1.1425792,-1.3190951,0.5745458,-0.4210754,0.48061633,0.86743385,1.3162118,-0.326234,-0.91607285,-0.16935217,0.6566249,1.1701218,-0.07335321,1.0768893,0.08075349,-1.2950704,-1.3863502,2.0247533,-1.276877,0.30340415,0.8053058,-1.2671194,-0.3245179,0.6588548,-2.014229
1.3117394,0.4435129,-0.7575695,-0.6187631,-0.12259888,-1.2859834,0.50611275,-0.13237652,-0.07048878,0.31541324,-1.6025994,-1.1366707,0.53336734,0.3061795,0.25862053,-1.3511009,2.1290073,0.70788795,-1.7940472,-0.45462418,-1.0593722,-0.7192613,-1.425551,0.8590834,-0.07741116,1.6627947,0.5313502,-0.99974686,0.43429837,-1.9094422
0.5141175,-0.47425604,0.66397476,1.7457721,-0.072714455,-1.1067282,-0.2576481,-0.98094577,0.89891285,-1.0000552,1.1046228,1.9802737,-0.1694533,0.17590137,-0.07211609,0.8548774,-0.5511378,0.42584813,-0.06530514,0.10187234,-1.012638,-1.1280596,-2.1424277,0.8249407,2.6779046,1.4994963,-0.70027936,0.9655864,2.2082338,1.1686898
0.17461844,-1.3632253,-2.3910737,1.9034951,-0.89848185,-1.1668626,0.4784042,3.0422823,-0.046312403,-1.5240159,-0.9288914,-0.544729,0.99536455,0.866152,-0.06566065,-1.0450747,0.30647525,0.064259194,-0.40410975,-0.6897514,0.5088811,0.7439162,-0.96772826,0.72938764,0.5479063,-1.027073,-0.6560406,1.3183231,2.0077353,0.5254004
-0.50390637,0.004254939,1.4297826,0.5150398,-0.07383524,0.2111882,-0.60391665,0.3648235,1.2449027,1.889846,0.015793905,-0.14153603,1.3244736,0.91875076,0.7660103,0.6282331,0.121773794,-2.4412405,1.3215879,1.8038105,-0.050862696,1.8476126,1.4098061,1.5814853,-0.8185085,0.76619476,-2.4375541,0.723619,-0.7916024,-0.15718552
-0.6093914,1.5348953,-0.37353942,1.7829978,0.11310084,-0.13459161,-1.7978686,1.8464673,-1.0330188,-0.7804632,0.73573184,0.10026139,1.2879485,-1.2484474,-0.50757,-0.44677445,-0.4338881,-2.5737252,0.47709978,0.4317526,-1.2352772,-0.8512749,-0.8029585,-0.6511624,0.28578418,-1.1487681,0.7840589,-1.2206287,0.5575546,0.34785703
-1.0725889,-1.1135936,-0.8586402,0.6409382,1.0568591,0.26222476,-0.097573765,1.5667907,-0.10398728,0.65406877,0.5220313,-0.015065439,-0.107639976,0.33198655,-0.26905212,0.3293974,0.7450873,-1.080794,0.07464899,-0.18198179,-0.27895713,2.7400475,-0.20803097,0.03147868,0.8817045,-0.41818976,1.1122693,-0.18692265,1.1084827,-1.2164084
1.5193177,1.1059872,-0.55133635,1.5210776,1.1047441,-0.66666096,-0.9152475,1.0931287,0.64689183,-0.6015107,1.0534619,-0.58114654,0.15714794,0.8385814,0.14372042,0.18078527,-0.019989455,-0.41871718,1.0656894,-0.5116889,-2.2466896,1.985636,-1.7994431,1.6823844,0.8199664,0.54544723,-0.4314805,-2.8153408,0.73563784,-0.33397958
-0.8060172,-0.86866003,0.10779755,0.2733107,-1.0651777,0.8162081,0.81308967,-0.87091166,0.8279334,0.6343289,0.3352537,0.64108866,0.5160669,1.2844702,0.006356308,0.10168746,0.8288146,-0.04051551,0.20052028,1.0082784,-1.3383526,1.0240805,-2.2485354,-0.45408297,0.3102049,-1.2055598,-1.282225,-0.7609583,0.14997475,0.24519567
-0.020294681,-0.35594878,-0.7717579,2.0524385,-0.77554464,0.5335283,-1.4493709,0.30564356,2.0172565,-2.7679372,0.30189472,-0.56090516,-0.7310541,-0.292019,1.2860091,1.3346996,1.0185794,1.6329972,-0.84035563,-2.3023744,-0.85742915,-0.16294348,-1.9627945,-0.56732756,3.2573876,0.010431575,0.70233715,-0.9422748,-0.08197113,1.1915152
-1.0271645,-0.022549225,-2.2022486,-1.3340907,-0.6755767,0.34358457,0.8197224,-3.2780037,-1.1437885,0.5955389,1.2291305,-2.625129,0.24214093,-0.49732968,0.47442704,1.6001744,0.5144657,-1.2980987,0.10665203,2.0494905,0.45972,2.225667,-2.455307,-0.47969392,1.6925346,-1.2433331,1.9219933,-0.24181482,0.754163,-1.4279385
-0.67416865,-1.2756927,-0.46539158,0.16588469,-0.31253025,-0.3279739,-1.1492323,-1.7814817,1.4531894,0.81483483,1.4555793,-3.617685,-1.2594945,-0.89395905,-0.7144835,2.5662608,-0.107959785,-2.0857909,1.1653429,0.9885612,0.19663721,-0.050816804,1.191763,1.502141,2.0135806,0.06630641,0.5640894,1.8191837,2.089527,-0.7188083
-0.5241016,0.895537,-0.69000864,-0.13044842,-0.7349134,0.4071853,0.3797842,-0.6397656,0.600584,-0.86066955,0.7290073,-1.833396,-0.78127116,-0.6799264,-1.7778404,2.0583436,0.07088108,-1.2922312,0.3329668,1.0423814,-1.1141728,-2.6497178,-1.781688,1.7025259,1.842468,-0.24307626,-1.3986607,0.1278504,0.07095254,0.5172957
0.33197376,-1.076544,0.37382612,0.32889062,-2.1621246,-0.19223078,-0.19459394,0.20823398,0.008980941,1.3018837,-0.7862152,-3.6836245,-0.9502782,2.1259286,1.0769045,-1.765653,0.54575765,-0.9391201,-0.06687106,0.7474796,-0.741998,-2.515978,0.56714696,0.26327777,1.4562155,-1.8198258,1.4456463,1.3535774,-1.983524,0.17291884
0.7653588,-1.553562,-0.49220645,0.31922516,-3.0129516,0.3137528,-0.39785916,0.7622826,-0.5826355,-1.107706,1.2315298,-2.3337371,0.43672022,0.3505091,1.228492,1.7232178,-0.33576772,-1.0864812,-2.0592139,2.1015408,-0.8744763,-3.1040466,-0.7270575,-2.5492928,1.4396142,1.935917,1.4898548,0.72059053,1.2698964,-1.270285
-0.44140568,0.34257606,-0.2194173,-0.4082522,-2.0213103,-0.30978885,-0.91764534,0.60696405,0.43809983,-0.56500065,-0.096736364,-2.339026,-0.6176702,0.04146541,-0.03026364,-1.3131664,2.54226,-0.9975784,0.63535976,-0.59651846,0.056756165,-2.7741895,-0.5118738,-1.6352829,2.6334314,0.25825736,-0.10539055,1.1982136,0.1583755,0.33722332
0.12249845,-0.63681114,0.5301921,1.2312688,-1.4442142,0.12441491,-0.89603007,1.8489563,1.5656667,-1.9690394,0.097332105,-1.5725231,-0.08424418,1.3964901,0.35042307,0.013318815,1.942711,-1.3233114,-1.072717,-0.77433413,-2.8397164,0.59719247,-0.25254932,0.5300316,0.9754829,-1.3559787,0.14235964,0.06979864,0.693335,0.2621772
0.26192898,-1.0852997,-0.7124386,0.1437175,-0.8445784,0.89021665,1.3888671,0.39615107,0.35949743,-0.46762538,0.6024226,-3.8121257,0.029483415,-0.35238397,0.61725736,-0.8635906,0.82262594,-0.27709278,-0.3811874,-0.96594363,1.0187804,0.20282823,-0.76703393,1.0783824,2.5046258,-0.41788626,0.48606545,-0.5087388,-0.98206955,0.14802088
1.465763,0.30394664,1.5895867,-0.22099838,-0.8064212,1.0001156,-0.2507607,0.38504088,-0.17784303,-0.58119756,0.27626246,-1.3351403,-0.7552759,1.2999525,1.0002621,-0.3115459,0.9811399,0.5718591,-0.8199657,-0.5665617,-1.0159423,0.71468717,0.8562462,0.058012225,0.21405596,0.77703774,-0.8407631,0.22702225,-0.06367249,0.1355838
0.56801176,-1.3558241,0.72855365,-0.6214815,1.1653799,0.6611477,-1.3440493,0.61319274,-0.8860055,-0.6008314,-0.3678181,-1.772854,-0.23001073,-2.2989676,0.79896235,0.1201375,1.6361257,-0.77088434,1.2467442,-0.8777813,-0.024376396,-0.0012772882,1.6194501,1.0173167,1.6516699,0.08895823,-0.21261024,-2.242428,-0.5018345,1.0938683
-0.6802162,-0.51636326,-0.3690077,-1.3761451,-0.026612403,0.8229222,0.60975945,1.3923311,0.7114259,-1.5451788,1.9733824,-2.0805113,-1.3317077,0.1617068,0.8883967,-0.009210407,1.9724458,-1.3860209,-1.2875446,-1.6213434,-0.4544712,-0.1062653,-0.29480538,-1.6004821,0.687929,0.44409353,0.30791974,-1.7308878,0.8102684,0.11885624
-0.7348712,-0.18156493,0.8617731,-1.5548742,-1.0563568,-0.028126413,-1.4658957,0.124375045,-0.6073337,-2.2728415,0.5467601,-0.5281415,-0.5187774,-0.9252467,0.49615842,-0.043502092,-1.1761054,-0.24306756,-0.87597674,1.7039336,-0.28426856,-0.05396225,0.033330318,0.25931767,-0.61251915,-1.4521207,1.0998,-1.3152652,-0.2706076,1.2958362
1.2053106,0.20941028,1.2133694,-2.1832712,0.8559098,-0.82726336,0.62076205,-0.07195181,-0.83996606,-2.2298577,-0.3644149,0.20968017,-2.0197825,-0.13247855,2.020032,0.59898734,-1.2448366,-0.95433575,-0.19735001,-1.8945286,-2.1361425,1.7666417,-1.0301682,2.0061214,-0.8367245,0.122536734,0.7592818,-1.9169033,2.4938262,0.60799783
1.3672724,-0.866856,0.52691835,-0.8001897,1.999347,-1.6326895,0.83086747,-1.4975624,1.2565709,-1.8109789,0.5655151,1.5532869,-3.8487139,2.0915294,1.975845,2.1578274,-1.262695,-1.2829885,-0.40192327,-0.25762728,-1.4551988,2.0068629,0.14604668,1.1255178,0.3911829,-0.174118,-0.7967355,-1.8178561,1.3412691,2.5935414
0.051784925,0.08473137,0.102591485,0.55244094,-0.023116611,-1.4678589,0.86305386,-0.26926303,0.9078741,0.20819035,-0.048276745,-1.8909001,-1.3973215,-0.30910292,1.2359004,0.2523628,2.0545363,1.0543087,0.8703666,0.6667026,1.8579051,-0.090676755,1.08645,0.7188395,-1.295329,-0.31692702,-0.599269,-1.40102,1.7802379,0.59490234
0.6098837,0.4328696,0.44192696,-0.11124086,-0.8122522,0.54838127,-0.5597954,1.1794752,1.3307437,-0.13793588,1.0470086,2.9950063,-1.0618215,-0.5542003,1.7442472,0.729601,-0.35061583,0.8554237,-0.21184608,0.24543275,-0.527449,0.33007953,-0.63140154,1.3765529,0.25073072,-0.9491495,0.50793606,-0.82951164,0.49747768,0.8265538
-0.9457659,-0.8964231,0.14931765,-1.2617956,1.3849707,-0.8136576,-1.1123006,0.6019083,1.7043947,-0.19451135,0.13110189,1.1447984,-0.31264266,0.66228694,-0.24093194,-1.0399278,-0.5515284,-0.46752325,-1.0127105,-0.31789723,0.028883021,1.6731213,0.055776443,-2.0490305,-0.771249,-0.52670336,1.2502741,0.7855635,-0.60297894,0.16307126
0.14008202,0.3450269,-0.5753724,0.3839696,-0.02398138,-0.021143151,-0.13572419,0.018422022,1.2588768,-0.7267586,-0.16970047,1.0617864,1.4846282,0.6092854,0.925267,-1.2502522,0.9007888,-0.8821028,0.5396748,-1.3861206,-0.3842242,0.6430218,0.6443319,-0.028338106,-0.30867445,-0.2605704,0.4392303,1.747235,0.6415064,2.0746396
-1.8754697,-0.3541718,-0.7239208,0.086703,0.40303585,0.80951864,-1.4511783,-1.4381299,2.5197434,1.3630022,0.99095,-0.6434923,-0.44361034,-1.9480889,-0.7708114,-0.5041964,-0.20705515,-0.7857237,1.5058103,0.28777564,-0.039031714,-1.2528272,0.061408054,0.4550944,1.9479145,0.39981347,0.73864675,1.8716555,-0.66167545,-0.44556257
0.13421352,0.8451535,1.6393036,0.52028286,-1.7874733,0.7147966,-1.030172,-0.70323896,0.11573878,-1.3293186,-0.32330227,0.5132821,0.8889433,0.34304708,0.44608513,0.3719496,0.37486187,0.62680626,-0.791684,1.8252133,-0.804829,0.29059833,-0.7996797,-0.9925337,0.52147573,0.025519311,-0.6104216,-1.977035,-0.80142474,0.16903661
-2.7524254,0.18800944,1.2126018,0.59100896,-1.0699956,-0.56331044,-0.49213967,0.48268795,1.5899292,0.8115191,0.0056209345,1.8091944,0.844962,-0.28225195,-1.4675401,-1.4072055,-0.58796215,0.24306554,0.7273015,-1.0841978,0.30306166,-0.44349325,0.8631358,0.90109307,0.5410224,-0.95040846,-0.70209265,1.0746018,-0.1802136,-1.7474426
-0.3246891,-1.0076578,1.6806983,0.6838999,-0.84326875,-0.3334136,-2.2743154,1.6724238,-0.87401086,1.792644,-0.658805,1.5810441,0.12865785,1.8992072,-0.4958712,0.29773015,-1.0542914,-0.6824621,1.9499826,0.27483505,-0.33520013,-0.6275646,-3.7412271,2.5600302,0.66551775,1.567564,0.72038317,3.7974353,-1.1135312,0.50344056
0.30643514,-0.565011,0.9089202,1.5511625,-1.7048017,-1.1194471,1.0735365,-0.44456518,0.2651082,1.7329955,-0.4443616,-0.67600864,1.3398558,1.8496006,0.70057833,-0.4501638,0.9429413,-1.6382195,-0.81767166,-1.9596919,-1.3967804,2.089096,-0.047248624,1.2659482,-0.5254512,-1.2559149,-0.7893551,0.09166096,-0.45447803,1.254416
0.2770089,1.1382438,-0.2810617,1.1843417,-0.25245714,-1.057819,-0.13977095,-0.07085618,-0.4831863,0.6172762,-2.1823535,-0.5377337,-0.9509045,-0.14184415,-0.5385868,1.5278436,-0.82385784,-0.8849148,1.3184844,0.2384895,0.263647,1.7085792,-1.288081,-0.44919544,-1.5594778,0.24050169,-0.90244967,-0.7121883,9.682895E-4,1.5379413
-0.26897126,-0.053628966,-0.044049628,1.3654568,-0.69542325,0.09420818,-0.8861715,-0.45782235,0.07749684,1.3903812,0.029281141,-2.1069906,-1.4512035,-0.8471475,-1.6196642,0.70392025,-1.1600007,-1.0442326,-1.1030737,-1.2959142,-0.8605979,0.26230833,-1.009158,2.1480963,-0.6411117,-0.21703978,-0.27569216,-0.1159704,0.9374275,0.5333377
0.58271754,0.385381,-0.93441063,-0.35324848,0.30399707,0.46699226,-0.45828706,-1.7201573,-0.71049136,0.31671664,0.356552,-1.3188535,1.1634574,-0.24432379,0.95724523,-0.12343691,0.022030791,-3.3017128,-0.18679716,-0.66293967,-1.6723429,-0.6942132,-1.4112355,3.2126412,0.044382762,0.86792165,1.2396692,1.4886074,1.2490026,0.59820294
-1.5059067,0.7445234,-0.77710027,-0.22899337,0.45234352,-0.3805149,-0.24620014,-0.2687,-0.033765163,0.0016746048,-0.14469813,-0.864715,0.47880983,-0.38152942,-0.5875341,0.5354633,-0.47622895,0.29337114,1.1701496,0.88172776,-0.5345772,0.5905002,-0.69721925,1.5331548,-1.1079235,-0.35083622,-1.605926,-1.5587268,1.5421424,2.931288
-0.14109172,0.4897373,-0.08947493,1.8089794,-0.38320112,-0.33140907,-1.8702154,-0.0203399,0.62322277,0.7579337,-1.0965008,-1.0995722,0.37149072,1.5685712,-1.0295588,0.13562173,0.5435648,-1.1167394,-1.1858925,0.8649912,-1.5518502,1.0454754,-2.4833276,1.2817926,0.09156059,0.60171294,-0.06680825,1.1849254,1.6631032,-0.8031622
-0.69268996,0.42022422,-0.012963359,0.9161165,1.3430065,-0.061579056,-1.9491515,0.2916145,1.1667168,-0.801446,0.42689374,-2.4894307,-0.023017086,-0.3505867,-1.6311162,1.5829523,2.0540733,-1.0367253,0.12295722,0.3028922,0.4296207,1.4561315,-1.0447654,0.99493486,1.7419897,-1.6640059,-0.5430191,-0.57361335,0.8925998,-1.2615802
-0.4573448,2.3739681,1.2959508,0.53805906,-2.0647926,0.7958068,-0.7486212,-0.58389336,0.24660327,-0.038198173,-2.1262996,-3.126116,-0.6081185,-2.4452085,1.0103601,3.5356724,0.22478284,-1.3134804,-0.85637504,0.79976475,-1.1895254,0.8571309,-0.54244,1.024685,0.7245124,-0.66583556,0.23269323,-0.11651397,1.3550729,0.22518058
0.49019277,-0.15741578,1.2276351,1.3732373,-2.2410061,1.163405,-0.43247044,-0.8530312,-0.5273074,-0.34197122,1.9378781,-2.630926,-0.47743747,-0.581129,0.97072273,1.14136,-0.52396667,1.2481219,0.3055614,0.3300971,-0.13822094,-1.012002,0.07836736,-1.2658774,0.6661189,0.78115636,1.5958223,-0.33687556,0.9451673,-0.24786443
-0.19743711,1.3320667,0.16593827,0.35512567,-1.3623203,0.91301155,-2.5264957,0.11105197,1.4226794,-0.8016858,0.3919755,-5.4718833,-0.26403835,-0.23909795,-0.15838069,1.1244807,-1.9362506,-1.4379982,1.254504,0.056049604,0.08506496,-4.3038087,-0.5221369,1.8161329,1.101778,-0.3663883,-0.3381929,1.0484627,-0.14362517,0.7211889
-0.9375219,0.20705631,0.5250251,-0.59328926,-2.1532934,0.9912785,-0.3549109,-0.27410793,-0.46968397,0.67557615,1.6308672,-3.0251575,-1.5666146,1.8897887,-0.001650678,-1.3713691,0.32960114,-1.9989047,1.054588,-0.45528004,-0.86329913,-3.5963213,-0.2913213,0.37788013,1.2078902,-0.32925618,-0.77201617,1.0429657,0.30480593,1.5708069
-0.020151144,-0.050967958,-0.13789316,1.5026404,-0.7336384,0.5907074,0.93821114,-0.37971047,0.15722597,-2.1816845,0.94820917,-3.5735233,1.0341413,0.10127023,-0.32064775,-1.5987881,-0.047032718,-0.28652546,-1.1641276,-0.7657104,-0.57518566,-1.3546174,0.2607533,-0.6318537,2.94195,-1.2277569,1.2575815,-0.41084027,-1.2584639,0.16898304
-1.0422627,-0.15766634,0.1647569,-0.5445789,-1.0278763,0.49443516,0.096288174,-0.13766834,1.3936543,0.63168186,-0.514666,-3.2424262,-0.50404644,-0.48873225,1.412084,-1.6562712,0.17389928,0.024992805,0.35193372,0.28048947,0.24747592,2.5846443,0.250035,1.2217453,1.2587953,-0.7512308,-0.19734547,1.5196127,1.1405363,1.2568485
0.22984815,0.16497035,-0.4090152,-2.2040484,0.7882083,1.6227732,-0.46662983,-0.46016333,0.7823143,-1.082988,0.1140323,-2.8888526,-2.0626814,0.77930474,-0.70874065,1.3752666,-0.5713561,-0.7967562,-0.14209972,0.45906937,-0.39437845,1.3993362,-1.2491851,0.57277566,1.3622972,1.9334986,1.4803325,1.5672607,0.7821033,1.1278684
1.05363,0.7066001,-0.90933865,-0.93230253,0.08578795,2.1437027,-1.332704,-0.06661842,1.0985582,-0.50012225,2.476819,-2.3476348,-1.7649914,-1.411252,1.2003573,0.14129514,-0.27526006,-0.27090073,0.5858591,0.8254008,-2.27775,-0.8890231,-1.4511788,0.859394,0.10645436,-0.67493165,1.9873623,-0.30167252,0.16560192,1.4432302
-1.8259432,0.39440167,-1.8620944,-1.5420984,-0.20512414,0.6832321,-0.8722174,-1.4592808,-0.5579994,-0.8739521,0.75221586,-2.261204,0.2524108,0.86948776,0.8325513,0.7249133,-3.898183,-0.79519665,-1.3899285,-1.4890444,-0.42040178,0.90763724,-0.9045988,1.239755,-0.38522404,0.86220443,0.0056256503,-2.250812,1.3834188,0.17468874
0.2828039,-0.78705305,0.14898361,-1.7327987,0.21177281,-0.55109537,0.25676388,0.07722241,0.16124733,-1.338202,-0.3352394,-1.5281532,-0.32055172,0.5028057,1.1035001,0.6678758,-2.8123085,1.2032855,1.2151356,-1.7303421,-1.419288,1.0461274,-1.4721966,0.44160268,-0.51359856,0.50461453,-0.30906978,-2.9653924,0.7088021,1.2881978
1.708758,0.39586657,-0.9935483,-0.11070791,-0.124418855,0.18686439,-2.231403,-0.0120548615,-0.67868674,-0.6850982,-0.38720357,-1.3682653,-1.5311654,1.5402659,0.16858591,-0.29796106,-4.5441837,-0.43167254,-1.573093,-0.44603112,-2.3052566,1.24601,-0.8410254,2.3680534,-1.5877796,0.6917372,0.06948786,-1.4522638,0.00944952,1.047535
-0.27375406,-0.83721715,0.22705595,-1.3726336,0.5114012,-1.7994825,-0.19478932,3.0723135,-0.46290612,-0.78751886,-1.2958789,0.06873873,-1.5598876,0.64747655,-0.6338607,1.3576392,-0.958369,1.8322756,-0.3926837,-0.22107683,-0.90659446,0.9257925,0.05191177,0.94160753,-1.5871129,-1.9747783,0.8052245,-2.6010656,2.412975,0.388496
1.5172113,0.8363246,-0.0033928163,-0.5216368,-0.016387094,-2.3614142,-0.56280303,0.38737047,-2.1940205,0.35553935,-0.7526017,-0.41523784,-1.7130139,2.042331,-0.123820834,1.5340337,-0.20652723,2.6589131,0.9549712,0.18487756,-2.4437618,0.17367132,-0.037246827,-0.8123978,-1.0866597,-0.62351215,1.174255,-0.626042,2.6514816,2.4009874
0.8690211,-0.3202,0.31828514,-0.9798577,0.3473831,-0.5817871,1.7627319,0.2812785,-0.35726476,-0.22085218,-0.116534434,1.4670868,-1.8510914,1.8336818,1.2717308,2.364388,0.5797974,0.80085725,2.7386906,0.47086847,-0.9722152,1.2022283,1.5435313,0.6160737,-2.0188153,0.3003244,0.487692,-0.9821038,1.5186383,0.28935996
0.2100023,0.29027307,-1.0896647,0.9906278,1.491722,0.66140467,-0.18870185,1.0124519,0.67607856,-0.5641601,-0.96126634,-1.0260099,2.1132731,-0.15074514,0.26580283,-1.6881715,-1.5818256,2.210305,-0.37331957,1.4420568,0.010780332,-0.71687984,-0.36189133,-1.1428224,-0.5346347,0.4524241,-1.0550964,-1.50266,-0.18021753,0.9890339
1.1180025,0.94807535,0.79103136,0.5130538,0.22889274,-0.12190205,1.3288778,0.9848382,-0.5852027,-0.42855293,0.66909605,0.80047375,-1.5953906,-1.6720566,0.77961254,-0.095674604,-0.65923774,0.20274822,-0.2773008,-0.5931178,1.2592286,-1.464125,-1.973307,0.021590209,0.38946542,-0.24689487,-0.29057205,-0.13966066,0.5279144,0.45332804
0.21605472,-0.94268155,0.7918918,0.30414566,-0.59936535,-0.50855166,-0.47567087,0.78758055,-0.05927589,0.38243413,0.13854122,-0.80947965,-1.1688963,-0.34551612,-1.4208744,1.0880953,1.8207939,-0.5653163,0.950187,-0.41666356,0.2339893,0.3580836,-0.60283697,-1.0844723,0.5316312,1.1964382,1.4779474,-0.7937633,-0.18471421,-0.47566012
-0.2792714,1.068655,-1.2390473,1.063396,-0.13374574,0.5556853,1.0355996,-1.5030606,0.69828445,-0.5188249,-0.5585277,0.5187631,1.8256688,-1.085842,-0.65774274,-1.8151598,-1.4778063,-1.0554494,-0.45963517,-1.4300286,1.1597029,-0.51518965,2.620538,1.4746115,0.28827193,-0.18433006,-0.6926437,0.4000264,0.5251016,2.3116646
0.74063146,0.37149334,-1.8968568,-0.4821628,-1.4174371,1.3489639,0.013590472,1.5770051,-1.1247954,0.26743856,0.26585168,-1.1038301,-0.7329258,-2.0046983,0.62184453,1.5443126,-0.82829016,-1.0718387,-0.71398073,-0.15121076,-0.07865776,-0.9012453,0.2313838,1.7657808,0.3967648,2.1005144,0.065460026,0.9483592,-0.11650927,-1.0376401
0.8925912,-1.591431,-0.44049683,-0.66845083,-1.1670196,-2.2523851,-1.0009465,-0.45992476,0.22073235,1.1245445,-1.1157163,-0.2100534,1.2236304,-0.10609253,-0.14222392,0.665971,-0.3960557,-0.6422752,0.058119223,-3.000063,-0.41450152,0.095400944,0.03628038,0.11779302,-0.8167893,0.21543677,-1.3213276,-0.45193988,2.3219533,-0.0986819
-1.2209435,-0.65336597,0.51703584,-0.0766981,2.0545955,0.23761128,-1.107111,0.8011622,-1.3891336,0.38020566,-1.5709643,-0.9680977,0.8835126,-0.58442044,-0.53801465,-1.3162229,-0.60454994,-1.1069995,-1.436611,-1.3279083,-1.9329783,1.9832438,-2.3513143,-0.21605141,0.112067945,0.1874254,-1.3698055,2.6928115,-0.029200993,0.8006966
0.35218495,2.0003824,-1.2917843,1.0548295,0.03227854,0.93273294,-1.3461685,1.7432531,-0.6966384,0.6629397,0.040539213,0.0139164105,0.3782471,-0.07639137,-1.0413465,-0.64914215,0.22572611,-3.2415247,0.05589716,-0.2109177,-0.6679501,-0.103390366,1.0564004,0.09835251,1.1121951,0.761965,-0.8724795,0.82006013,1.8477353,0.32606432
1.2386712,1.1883276,1.4801718,-1.2233107,0.9410234,0.8370404,0.49692297,-0.13203502,1.5067905,-0.25788212,1.1398695,0.3575116,-0.11118821,1.5012864,0.11138573,-0.47310242,1.274112,-0.14196621,0.48823708,0.3916935,-0.34730855,0.25769678,-0.057979427,-0.3481094,0.5918357,0.9376514,0.9987636,0.6759855,0.124221794,0.22164653
1.1225625,0.25007626,-1.1988466,0.22503504,0.59669876,1.1020937,-0.41872022,0.19728512,-0.30807826,-1.2935618,0.39058915,0.22631994,-0.84466845,0.7571683,-0.24836478,-0.011338379,0.7987134,-1.2016695,-1.3849688,1.0312421,-0.6487468,0.20059139,0.12716368,0.916881,1.42348,0.9548296,-0.22587799,-0.6902628,1.9777116,0.68149287
-0.022194965,1.099325,0.3131854,1.3049423,-1.3406183,-0.52400297,-0.75656193,-0.28217155,0.34193203,-0.36938614,1.1612887,-1.0595192,0.3872478,1.5157282,-0.85851014,-1.0406259,0.22781794,-1.7148231,-0.53057706,1.0061901,0.16015714,2.0415857,-2.0134828,0.08675911,-0.29195213,0.93114907,0.33981416,-0.8932341,1.3701302,0.6810236
1.6939952,1.2912802,-0.18833542,-0.19213122,-0.28683367,1.4346077,-1.1365455,-0.5704476,0.27996758,0.64554936,-0.47375056,-1.4915037,-0.51878256,-0.8219394,-0.9955269,1.9799811,1.0746781,-0.5619647,0.17580268,-1.2767287,-2.0385256,1.4868121,-3.2598693,1.216773,2.0359488,0.14035404,-2.3081334,0.4824892,0.38933477,-0.1793331
-0.9581678,1.1913002,-1.8863093,-0.18042794,0.64437747,1.674581,1.1477655,-2.2276716,-0.40979087,0.15034932,-0.86000246,-0.85008043,1.5793755,-1.4056675,0.24891767,-1.0060828,-0.20478943,-0.45838404,0.19711046,1.689403,-1.5953135,0.9448497,1.0294567,0.24005088,1.9736967,1.427505,-3.6448245,-3.3559089,1.9494923,-0.3380134
1.3860396,1.5142512,-0.86774504,-0.8664888,-0.8604355,1.0205321,-0.56211454,-4.399283,-0.1409868,2.1495342,1.0716053,0.043948237,-0.79300433,-0.24012774,0.5537657,1.5730191,0.59875095,-0.18620032,-1.6217878,-0.5619742,-1.7476509,1.0568439,-0.07103731,0.62909544,0.64956445,0.55867296,0.6376978,-1.8114508,0.69664043,-0.041196086
0.20695223,0.2735211,-1.9639078,1.3030419,0.45861673,1.3686758,-1.5681423,-0.9402181,0.8486821,-0.8407102,0.5029773,-0.43437985,0.7408103,-0.2673046,-0.34479517,1.96727,-1.048801,-1.2362399,0.34872422,0.037026856,0.241338,1.133465,0.2374276,0.30456194,1.0611403,-0.70982003,2.559948,-0.8939354,1.3231708,1.4954666
0.07402434,-0.23121929,1.2971722,1.0731624,-2.2288716,-2.5983584,-0.4745868,0.22436629,1.4357816,-0.22093537,0.141685,-3.6457493,0.56235564,-0.31547624,-0.046015672,0.24238333,-1.4585373,-0.8879594,-0.09445031,0.26076382,0.38223234,-2.1099877,-0.8418716,2.828688,0.84336525,0.22218789,0.80454344,0.25194815,0.6889872,-0.007770844
-0.43173409,-0.7192955,-0.34110272,-0.6135823,-3.3158972,-3.0293128,-0.6580956,-0.12517577,-1.0646056,1.8481374,0.3298391,-3.544528,1.2753004,-1.3023645,-0.4663592,0.183191,-4.83054,0.9378375,0.5931996,-3.5720696,-0.13324852,-5.989596,0.9416089,1.0206372,1.9561973,-0.2808623,1.8001997,2.978547,0.6155588,0.7468878
-0.74056613,-0.2691734,0.5748972,0.20516765,-1.176571,-1.017182,-2.3749204,0.34868583,1.61615,0.8199293,1.6013236,-4.5550556,-0.2663338,-2.9230423,-0.8914372,0.17735232,-5.622095,0.51249313,-0.69361776,-2.3478975,0.21347359,-0.4577252,0.44869304,0.3105741,2.3757324,-0.60911965,0.35659158,3.7900987,-1.8351494,0.9055499
0.16501014,-0.22424668,-1.0026146,-0.7150327,-1.8630238,0.42263266,-1.91473,-0.39857405,0.2080551,0.83458704,0.4135225,-2.6665106,-0.48759687,1.0127106,-2.0868123,-1.3381076,-6.2405133,-1.3105859,0.8482685,-0.32383636,-0.9077101,1.2220627,1.6327196,1.5174223,1.0634326,0.12010836,-1.2967724,1.6825198,-1.4226191,0.4579796
-1.5705242,0.25588083,-0.27533314,-2.180277,1.3505563,1.5234631,-0.6409062,0.987991,-0.28255332,0.16683045,-1.7518128,-1.9607404,-0.41741115,-0.1090548,-1.9328041,-0.11489866,-4.7599206,-0.37935597,0.018906308,-1.6542268,-0.9759121,-0.7276362,0.057962578,1.7683194,-0.58044225,1.3624556,-2.898927,2.3138542,1.0445889,1.6075128
-1.39064,0.008794175,-0.0025107472,-1.088432,0.1844056,0.12458057,-2.1065924,-0.4966199,0.18849626,-0.58532274,-1.473585,-0.9437302,0.110090435,-1.3978528,-3.1070144,-0.5082607,-6.551445,-1.0096021,-0.50636077,-1.0075232,-0.6475353,0.68802613,-0.4004577,2.8061752,1.3827968,0.67730516,-0.8008761,-0.44371003,0.31071457,0.04671177
-0.65179443,0.62714857,-0.6484554,-0.5732813,0.19304168,0.7131293,1.2456042,-1.0279322,0.4985597,-2.1101983,1.0855194,-2.7797298,1.0256287,-0.95117646,-2.0923858,1.678312,-3.9144258,-0.14611228,0.9515903,-2.1306057,-0.6760505,-0.4275815,-0.5431797,1.6533526,-0.8552407,0.25136995,0.66077995,-0.5060703,0.4962659,0.88604796
1.2570862,0.25599045,1.0233537,-0.47728318,1.4152598,1.0778586,-0.64699364,1.1147813,0.84172404,-0.41989955,-0.22460166,-0.2570477,-0.6055135,-1.0866575,-2.0539408,-0.9611606,-4.764578,-1.7095237,-1.0150588,-1.1216093,-0.8452175,0.49505398,-0.6415643,0.7498979,-3.1203663,0.7487365,-1.3060154,-2.1403031,0.51316124,0.45474604
0.85238534,0.9962238,1.1100047,-1.1198938,1.0705246,-0.32102236,0.0033798348,1.1072723,-0.20975123,-0.201821,1.6600298,-1.1091713,-1.1049755,-0.85570043,-3.1291697,0.33080956,-3.482856,0.37660417,0.18760811,-2.0207193,-1.131023,1.6067257,0.6606545,1.0998852,-0.49701023,0.2910835,0.96678555,-2.9182503,1.9000062,1.018683
0.36545438,0.37235922,1.3630694,0.4479656,1.346623,-0.6487513,-1.4284892,0.67420846,1.5130048,-0.11475642,-0.27051854,-0.21336532,-0.90424424,-0.0759652,-3.1678538,1.4645537,-0.99890983,0.6224582,-0.2812163,-0.56291026,-1.338504,0.42985708,0.1667669,-1.7017072,0.17315282,0.43903705,-1.3376793,-2.534882,2.1139448,0.4485848
-1.0152204,0.6440221,-1.4174699,-0.64557683,-1.7710485,-0.9408701,-0.25446123,1.0606298,-0.7131145,-1.8782591,-1.3268921,0.96046513,-2.4450166,-0.22166058,-3.260856,0.5247307,0.34392843,-0.32885787,-0.024505464,-2.5174222,-3.334269,0.6155587,-0.3874377,1.4546473,-0.32490072,-2.328544,1.4743687,-1.1619581,2.1481755,-0.12740423
1.5979757,0.25714675,-0.70700574,-0.72863483,1.4151825,-2.7603965,0.949333,-0.73899716,0.9825423,-1.6791763,-0.33985862,0.02847938,-2.845473,0.2743592,-0.46013898,-0.3030992,-0.9647379,1.3885621,0.42200068,-1.6905365,-1.9365762,1.3645345,1.547289,0.98153806,-0.6423466,-2.549252,1.4994946,-0.6979831,1.6528592,1.8640524
1.7579849,-0.17847379,0.4343251,-0.31271735,-0.508479,-0.5820112,-0.9609788,1.5706576,-0.32726914,-0.5573445,1.2848263,1.1257176,-1.3858273,1.5575091,-1.2571462,-0.70636785,1.8941896,0.5107424,0.8677163,-0.34881413,-0.7997959,0.3586107,1.7737017,1.0090785,0.28287372,-2.4738626,0.7775801,-0.99027234,1.1077616,0.8475113
-1.3757864,1.6878692,-1.0257349,0.27668756,0.26704195,-1.4623381,1.4334499,-0.93891275,-0.15146917,-1.3059225,1.520065,0.4921638,0.24489781,-0.41304168,0.14168954,0.78033245,-0.7497149,0.16502297,1.3905329,-0.97404265,-0.99461645,-0.19771393,2.5722747,0.57857305,0.5459804,-0.12734355,-1.3082453,1.01333,1.993415,-1.1952275
0.32716396,-0.8130768,0.6376793,0.19370766,0.39580238,0.17585228,0.3240612,1.3396584,1.1405905,-0.32066032,0.6881649,2.1405923,1.1108074,-1.151192,-0.9511771,0.18801236,1.5092506,0.06152985,0.30988657,-0.27466774,-0.67781925,-0.40284455,0.28508076,2.1516576,-1.8044515,-1.8639457,0.46682918,0.55643606,-0.39561334,0.5103092
-0.47643515,0.21260913,1.7596468,0.70339954,-0.4049604,1.479643,-2.152399,0.66549426,1.832636,0.94318545,-1.5299844,1.7738287,0.09863513,-0.43454668,0.48405713,-0.73383707,1.4245603,-0.56449264,-0.0817531,1.0247172,0.95539194,-1.5383941,-0.6942465,1.9341873,-3.0605505,0.93551165,-0.226738,1.4157403,-1.2362691,0.62774557
1.5013449,-0.13793841,-0.17953204,-2.44706,0.80302125,-1.7673929,0.1933651,-1.042735,-0.7199068,-0.03888537,-1.439328,0.40377378,-1.0081947,-0.80214995,1.3200811,0.16576028,-1.2130145,0.013953727,1.3613336,-0.035336487,0.25459862,0.096306555,-1.0423751,-0.6527205,-1.3762182,0.69565755,2.0052178,0.98163885,-0.81038225,-0.28108844
-1.0401855,0.7456778,-1.0466716,-0.5066726,0.3678814,0.85141313,0.97713494,-0.2236021,-1.2934312,-0.41430348,1.1840318,1.3132751,-0.25605196,-1.5141591,0.62766945,0.79668677,0.88289213,1.1333348,-0.047700513,-0.66187733,0.12246642,-0.09017469,-0.28463024,-0.0558367,-1.719071,0.9007222,2.1636972,-1.035131,-0.09462168,1.3426323
-1.146376,-0.9117808,-0.7790785,0.04013967,-1.1597508,-0.02926725,-0.524393,-1.6709359,1.6565635,0.33269957,0.09638756,1.4507697,0.79899585,-1.320488,-0.70196825,0.06109346,0.9505676,-1.4229451,1.7090309,-0.942333,-1.3589408,1.375577,0.6865179,-1.7476368,-0.72384536,0.3487744,-0.85192144,0.64823717,0.014609508,0.5970326
2.105614,0.74639994,-1.1170651,1.2938803,1.082629,-1.4625323,-1.6914728,-0.7670145,-0.7628897,1.2124897,0.4242349,1.4172944,0.09888642,-0.6246602,0.83897614,0.33666292,0.043833476,-1.9851,0.95385385,-1.1643409,-1.3649501,-0.23956433,-1.4819791,0.49252754,-1.8771527,0.75194633,-0.41352347,0.86706084,-0.21230976,0.20407854
-0.81574535,1.4530798,-0.45244282,1.0780103,0.38726062,-1.0192962,-1.0083956,0.67105174,-0.3744298,1.1938951,-0.500941,1.2673548,0.7372297,-0.7133143,1.6940752,0.68555295,-0.054230068,-1.6764334,-0.36016372,-0.93971545,-0.32993573,0.6603895,0.6882663,0.13211362,1.3028624,2.9853384,-2.5988634,-0.6581562,0.8861866,0.017311657
1.7656026,1.3617253,-0.41241828,-0.20204501,0.23385254,-0.68014294,-0.05905486,-0.11062024,0.6551671,0.045128018,-0.34992826,0.27112666,-0.55872107,-0.54331607,-0.48400176,0.6626338,0.85210836,-1.7671437,-0.48118216,0.3414575,0.16885032,-0.4422848,-0.9190596,-0.7676563,2.3443377,1.1111712,-0.41915435,-1.0805537,0.73866504,-0.18947467
0.0034798137,1.966021,-0.19206442,-0.7530781,-0.8400354,-2.4366555,-0.86704814,-0.06260574,-0.8586457,0.3237731,0.61217207,1.7002556,-1.3168302,0.16448031,0.13085164,0.3039515,-0.13747308,-0.27137035,0.79965574,-0.096140295,-0.86007047,1.1226193,-2.0993874,0.105410025,1.9632782,0.800517,-0.6964128,-0.3798038,2.7853131,-1.3319002
1.4015843,2.309506,-1.1339138,-0.14504707,0.77778393,-0.58910644,-0.58455884,-0.66067576,-0.61867946,0.24931243,0.94339114,-0.11565877,0.731984,1.4129472,-0.056569315,2.0580523,2.3085446,-0.7383841,0.1617868,-0.5537495,-1.1880645,1.3277693,-0.6258533,-1.0786124,1.2247128,1.1946121,0.20324239,-2.331279,1.4135488,-1.8575387
2.5729456,2.8687086,-0.7035037,-0.25450104,-0.4708148,-2.0139055,-0.74133664,0.95490193,1.0284308,-0.54148996,0.2085538,-0.4495875,1.7386811,0.1454696,0.18064824,0.7564397,1.2400293,-0.40662327,-0.23129956,-1.929938,0.9985094,1.084296,-1.4674917,1.0228773,0.60828483,0.18716869,-0.35661927,-3.8306632,1.5396067,-0.058279037
0.86614954,1.9063942,-0.23632576,0.2506379,-0.43919408,-2.378702,-0.7916182,-2.3987815,0.0022790409,-1.0627928,-0.13188335,-0.122543156,1.3823712,-1.0733993,0.31483838,0.05337818,-0.95041066,1.5552366,-0.4237763,1.1856244,-0.22775596,1.5064112,-0.5668642,1.6035513,0.98345923,-0.21798044,-2.1165102,-2.4135754,1.2801602,0.56518567
2.0019386,0.4719738,-0.0402347,-1.0686412,0.13103853,-4.646975,-0.5479053,-2.6547232,1.6453955,1.1075737,-0.026236847,0.32234603,1.0400177,-0.50403184,-0.112762295,1.424823,0.21503036,-0.61378914,-1.7159227,-0.6279089,-0.51541793,1.8093493,-0.2984125,1.3953794,2.4506063,0.29233631,1.6934625,0.3577387,1.2000165,1.3161951
1.4275362,1.1625413,0.34310818,-1.2658911,-1.7997183,-6.3571467,2.8271704,0.6249326,1.7354752,0.1401793,0.17432767,1.0193943,-0.24846067,0.27643597,-0.36313057,2.5944657,1.2326967,0.23067147,-0.69122416,-1.1455476,-0.6850004,1.7104503,1.4752151,1.7679697,0.47108543,-0.26069525,2.3509617,-1.7117544,1.8279831,-2.181052
-0.17140274,0.101176225,0.98297924,-0.56372344,-2.6275947,-6.4609394,1.3481077,0.19480222,-0.96021223,4.030829,-1.4540697,0.7909198,-0.6319057,-0.26648596,-0.31440812,2.415513,-0.50981593,-1.110729,-0.8403406,-3.1214933,-2.0933497,-5.855773,1.3300335,1.8251462,2.0231094,-1.3574395,1.3057919,1.5417349,0.3881919,0.0076625748
2.773115,-0.11779163,-0.2897453,1.2276368,-0.70518774,-3.0977373,2.5756218,-0.4918843,-1.4016621,2.8801427,-0.55702436,-3.3625906,-0.40474108,-1.4584258,-2.2189715,0.32600465,-2.2423184,-2.685249,-0.80073947,-0.15823713,-0.79749674,-5.4562283,2.0656378,0.7254242,2.8357692,-2.2957504,1.7559899,2.777818,1.6038307,-0.22326317
-0.07170471,-1.2889363,-0.96269345,0.5498658,-1.1763636,-0.29764652,0.5201413,-0.7009329,1.1170603,0.7762348,1.0434443,0.39713034,-1.2019682,-1.9571108,-1.5930871,-1.8091978,-3.0348513,-1.4229491,-2.0691686,-1.7069702,-0.96353453,0.22131816,1.7175995,1.0822214,-2.5193148,-0.3499748,3.4434428,3.471402,0.6479976,0.20076942
-1.5436718,0.5471527,-2.7211423,1.0083364,1.5877097,1.1771173,1.2714382,0.11038552,-0.56606436,-1.0868678,0.21776442,-1.5286697,0.5960273,0.36443287,-3.2599945,-1.933103,-0.7940021,-2.4875216,-1.6062146,-0.943172,-0.92968136,0.004089862,0.2038852,1.2443842,-0.67843556,0.4371859,0.7350595,1.7190621,0.7907704,0.9328902
-0.90600693,0.45784885,-0.877984,0.5879443,-0.2405746,-1.5137398,0.39537388,0.6723418,1.050304,1.3036631,-0.456168,-1.6963603,-0.17011444,4.3078732,-5.844547,-1.2538277,-1.9808736,-1.787164,0.1032042,-3.709264,0.03378035,1.1187656,0.56107193,-0.4384046,-1.0619639,-0.07379026,0.47517315,-0.36736226,-1.2205278,-0.23425682
1.4430487,1.4433898,-1.5303388,1.1767387,-0.043104738,-0.7253049,0.80532527,1.9109935,1.6435897,-0.48779947,-0.79796124,0.8004186,0.027293453,1.1084001,-4.822878,-1.670389,-2.3408387,-1.0254568,-1.8904471,-0.364438,-0.56943446,-0.6113502,-1.3772633,1.3265992,-1.1365368,2.197879,-2.0622735,-0.44130105,0.3339916,-0.3772848
-1.2788568,0.97339195,-0.85364074,0.355246,1.506026,-0.09886755,0.5443294,1.3997924,0.027653228,-1.1935365,1.570243,-0.2575762,0.4585309,1.6468031,-5.1180983,0.8513503,-2.9689126,-1.1537559,-1.7275652,-1.1723648,-1.3521111,0.6270487,0.41124588,0.91335076,-1.0386031,1.2927403,-1.9310145,0.1276446,1.3557535,0.017694613
0.9378444,-0.39933792,0.48332283,0.91178834,1.0863713,0.5477485,-0.4099648,-0.38660234,1.4357811,0.33923954,0.9053809,-0.39820477,-1.6080706,1.3874805,-4.5927944,0.30508918,-2.3915768,-0.6270824,-0.8154503,-2.0257504,-0.24790241,-0.23711888,-1.6954889,-0.80137336,0.35884243,-1.3034973,-0.10208065,-0.5288771,1.2296417,1.375072
-0.18483779,0.40872836,-1.6223291,0.06298744,-0.5415721,-0.041711457,1.65502,1.305926,1.2965881,-2.816237,2.3525186,0.07464572,-0.8757221,-0.64951104,-3.472872,1.5176739,-2.5140913,-0.1739315,0.92349607,-1.4764405,-2.145351,-0.7827736,-1.6563994,2.8363123,0.92315954,0.1219683,0.7570729,-2.359552,-0.8667366,1.2139707
-0.8551678,-0.93632054,0.25686195,1.5056041,-0.4215492,2.4584405,1.54475,0.61946094,1.5392287,-1.3358516,-0.011402552,0.12556998,-0.9336237,1.0473133,-2.9737215,-1.0412772,-3.0110657,-1.2755544,0.069316804,0.5619351,-0.7330272,-0.6969793,-0.6091661,-1.0727816,-0.73129064,-0.3523793,1.4997275,-3.5529037,1.0816118,0.5674389
-2.2128613,-0.5255703,1.5256984,0.9961248,1.4470638,-1.2703284,1.8271432,0.7217466,-0.5670499,-0.34162638,0.34442124,0.24154063,-2.9974403,0.042293485,-4.1566596,1.8274189,-1.2404943,0.86661834,-1.3525543,-2.4654279,-0.6415668,-0.5615376,1.3272784,0.28632703,1.0467845,-2.2806702,1.081689,-1.3417125,0.9993236,1.5414808
2.2072206,0.14187536,0.35135773,-0.42544118,0.35767603,-0.6337115,1.4144869,-0.36746144,-0.29130334,-2.3405547,-1.6652389,-2.6837344,-2.7901251,-0.6874559,-1.6155945,1.1360803,-1.7658495,0.7439978,0.97702175,0.20320326,-0.14815035,-0.36298078,1.6738741,-0.10326643,0.62203246,-5.2310915,0.8776414,-1.2307792,-0.32300127,1.8910608
